{"learner":{"attributes":{"best_iteration":"99","best_ntree_limit":"100"},"feature_names":["best_of","rank_1","rank_2","rank_diff","pts_1","pts_2","pts_diff","odd_1","odd_2","odds_diff","p1_total_matches","p1_wins","p1_losses","p2_total_matches","p2_wins","p2_losses","p1_win_pct","p2_win_pct","p1_winpct_hard","p2_winpct_hard","p1_winpct_clay","p2_winpct_clay","p1_winpct_grass","p2_winpct_grass","p1_winpct_carpet","p2_winpct_carpet","p1_winpct_atp250","p2_winpct_atp250","p1_winpct_atp500","p2_winpct_atp500","p1_winpct_grand_slam","p2_winpct_grand_slam","p1_winpct_masters_1000","p2_winpct_masters_1000","p1_winpct_indoor","p2_winpct_indoor","p1_winpct_outdoor","p2_winpct_outdoor","tournament_encoded","surface_encoded","series_encoded","round_encoded","court_encoded","win_pct_diff","experience_diff","surface_advantage","series_advantage","court_advantage"],"feature_types":["int","float","float","float","int","int","int","float","float","float","int","int","int","int","int","int","float","float","float","float","float","float","float","float","float","float","float","float","float","float","float","float","float","float","float","float","float","float","int","int","int","int","int","float","int","float","float","float"],"gradient_booster":{"model":{"gbtree_model_param":{"num_parallel_tree":"1","num_trees":"100","size_leaf_vector":"0"},"tree_info":[0,0,0,0,0,0,0,0,0,0,0,0,0,0,0,0,0,0,0,0,0,0,0,0,0,0,0,0,0,0,0,0,0,0,0,0,0,0,0,0,0,0,0,0,0,0,0,0,0,0,0,0,0,0,0,0,0,0,0,0,0,0,0,0,0,0,0,0,0,0,0,0,0,0,0,0,0,0,0,0,0,0,0,0,0,0,0,0,0,0,0,0,0,0,0,0,0,0,0,0],"trees":[{"base_weights":[-1.3122129E-3,6.368632E-1,-8.7620276E-1,1.2376548E0,2.4852577E-1,-1.361891E0,-5.308295E-1,1.5595323E0,1.0173049E0,4.7756973E-1,4.403151E-2,-1.6590203E0,-1.1933702E0,-7.579362E-1,-3.4917596E-1,1.8055806E0,1.4325238E0,1.1246449E0,8.476395E-1,6.571706E-1,3.809441E-1,1.2659784E-1,-3.3597285E-1,-1.7937778E0,-1.5227407E0,-1.1026884E0,-1.3124635E0,-8.273551E-1,-6.031921E-1,-4.307317E-1,-2.4490431E-1,-1E0,1.8101532E0,1.5497836E0,1.3666667E0,1.1803814E0,1.030303E0,8.510029E-1,-1E0,6.614736E-1,-8E-1,2.9693344E-1,4.5364508E-1,6.601378E-2,4.61662E-1,-8.012461E-1,5.0645996E-2,1E0,-1.7982794E0,-1.5369189E0,-9.89899E-1,-1.1179519E0,-6.827309E-1,-1.4189118E0,-1.2489244E0,-8.54227E-1,-5.8271605E-1,-5.234442E-1,-7.4613005E-1,-4.9443206E-1,-3.0823863E-1,-2.5705725E-1,6.2222224E-1,1.8993007E0,1.7393589E0,1.562803E0,7.5555557E-1,1.4261494E0,1.2014072E0,1.1923653E0,7.6363635E-1,1.0364964E0,-5E-1,8.776638E-1,5.846154E-1,7.529586E-1,5.8925474E-1,-1.25E0,5E-1,-9.811321E-2,3.1727934E-1,4.7346938E-1,3.533569E-2,1.3210514E-1,-5.443012E-2,6.9180566E-1,1.7562725E-1,-9.751773E-1,-3.866944E-1,2.8315946E-1,-7.255521E-2,-1.8004158E0,-0E0,-1.5398661E0,2.2222222E-1,-1.1363636E0,1.3333334E-1,-1.1210872E0,3.529412E-1,-3.6942676E-1,-1.1666666E0,2.2222222E-1,-1.4237288E0,-1.2009238E0,-1.430303E0,2.5641027E-1,-8.597561E-1,1.7391305E-1,-6.759003E-1,-7.9581153E-1,-4.695122E-1,-7.6175547E-1,4E-1,-5.365141E-1,-3.5825545E-1,-4.7739223E-1,-2.2150883E-1,-3.456011E-1,-1.8442154E-1,-2.2222222E-1,9.2537314E-1],"categories":[],"categories_nodes":[],"categories_segments":[],"categories_sizes":[],"default_left":[1,1,1,1,1,1,1,1,1,1,1,1,1,1,1,1,1,1,1,1,1,1,1,1,1,1,1,1,1,1,1,0,1,1,1,1,1,1,0,1,1,1,1,1,1,1,1,0,1,1,1,1,1,1,1,1,1,1,1,1,1,1,1,0,0,0,0,0,0,0,0,0,0,0,0,0,0,0,0,0,0,0,0,0,0,0,0,0,0,0,0,0,0,0,0,0,0,0,0,0,0,0,0,0,0,0,0,0,0,0,0,0,0,0,0,0,0,0,0,0,0],"id":0,"left_children":[1,3,5,7,9,11,13,15,17,19,21,23,25,27,29,31,33,35,37,39,41,43,45,47,49,51,53,55,57,59,61,-1,63,65,67,69,71,73,-1,75,77,79,81,83,85,87,89,-1,91,93,95,97,99,101,103,105,107,109,111,113,115,117,119,-1,-1,-1,-1,-1,-1,-1,-1,-1,-1,-1,-1,-1,-1,-1,-1,-1,-1,-1,-1,-1,-1,-1,-1,-1,-1,-1,-1,-1,-1,-1,-1,-1,-1,-1,-1,-1,-1,-1,-1,-1,-1,-1,-1,-1,-1,-1,-1,-1,-1,-1,-1,-1,-1,-1,-1,-1,-1],"loss_changes":[1.489271E4,3.5980894E3,1.8864375E3,4.2786816E2,4.388175E2,2.3209668E2,2.7104688E2,7.425E1,6.455957E1,7.644159E1,1.5538293E2,2.8291016E1,3.0805664E1,3.088684E1,3.0982819E1,1.25E1,1.0442383E1,1.03532715E1,9.538574E0,1.021344E1,1.7429413E1,8.254807E1,1.590575E2,1.2409912E1,4.8737793E0,1.014502E1,6.9243164E0,1.2743774E1,9.965454E0,1.5843445E1,1.7092102E1,0E0,1.9487305E0,4.7907715E0,8.608154E0,5.9627686E0,8.337341E0,9.401489E0,0E0,9.734314E0,3.55E0,1.0777382E1,1.2751953E1,2.744038E1,4.0873566E1,2.8554443E1,1.3878017E1,0E0,3.2375488E0,4.607788E0,4.2232323E0,7.9611816E0,9.007294E0,4.057617E0,5.364868E0,1.1352173E1,1.4394997E1,8.241638E0,6.0892487E0,7.5269165E0,1.0222397E1,1.0131706E1,5.9655056E0,0E0,0E0,0E0,0E0,0E0,0E0,0E0,0E0,0E0,0E0,0E0,0E0,0E0,0E0,0E0,0E0,0E0,0E0,0E0,0E0,0E0,0E0,0E0,0E0,0E0,0E0,0E0,0E0,0E0,0E0,0E0,0E0,0E0,0E0,0E0,0E0,0E0,0E0,0E0,0E0,0E0,0E0,0E0,0E0,0E0,0E0,0E0,0E0,0E0,0E0,0E0,0E0,0E0,0E0,0E0,0E0,0E0,0E0],"parents":[2147483647,0,0,1,1,2,2,3,3,4,4,5,5,6,6,7,7,8,8,9,9,10,10,11,11,12,12,13,13,14,14,15,15,16,16,17,17,18,18,19,19,20,20,21,21,22,22,23,23,24,24,25,25,26,26,27,27,28,28,29,29,30,30,32,32,33,33,34,34,35,35,36,36,37,37,39,39,40,40,41,41,42,42,43,43,44,44,45,45,46,46,48,48,49,49,50,50,51,51,52,52,53,53,54,54,55,55,56,56,57,57,58,58,59,59,60,60,61,61,62,62],"right_children":[2,4,6,8,10,12,14,16,18,20,22,24,26,28,30,32,34,36,38,40,42,44,46,48,50,52,54,56,58,60,62,-1,64,66,68,70,72,74,-1,76,78,80,82,84,86,88,90,-1,92,94,96,98,100,102,104,106,108,110,112,114,116,118,120,-1,-1,-1,-1,-1,-1,-1,-1,-1,-1,-1,-1,-1,-1,-1,-1,-1,-1,-1,-1,-1,-1,-1,-1,-1,-1,-1,-1,-1,-1,-1,-1,-1,-1,-1,-1,-1,-1,-1,-1,-1,-1,-1,-1,-1,-1,-1,-1,-1,-1,-1,-1,-1,-1,-1,-1,-1,-1],"split_conditions":[2.8358334E-1,-1.48525E0,1.3165834E0,1.179625E0,-4.58125E-1,1.1363333E0,1.4953749E0,1.07825E0,1.305375E0,1.490875E0,4.15E1,1.07875E0,2.93875E0,1.4054999E0,1.5835416E0,2E0,1.1194999E0,1.266125E0,5.982456E-1,4.8228127E-1,4.35E1,1.4433792E-1,1.625E0,2E0,2.345E2,1.6077672E-1,1.2245E3,1.455E2,5.35E1,1.255E2,2.57E2,-1E-1,1.0387499E0,7.618751E-1,3.5E0,1.794175E-1,5.640843E-1,5.3211715E-2,-1E-1,2.25E1,2.1252735E-1,3.3889943E-1,5.5E0,1.8269584E0,1.6207917E0,6.55E1,-1.6100001E-1,1E-1,4.4155845E-1,3.9333332E-1,7.75E0,3.2742882E-1,9.249531E-2,-1.067E3,5.5299795E-1,4.5E0,6.620835E-2,3.9786863E-1,1.4892831E-1,3.5E0,-9.5372766E-2,7.858819E-3,-1.489029E-1,1.8993007E-1,1.7393589E-1,1.5628031E-1,7.5555556E-2,1.4261495E-1,1.20140724E-1,1.1923653E-1,7.636364E-2,1.0364964E-1,-5E-2,8.776638E-2,5.8461543E-2,7.529586E-2,5.8925476E-2,-1.25E-1,5E-2,-9.811321E-3,3.1727936E-2,4.734694E-2,3.533569E-3,1.3210515E-2,-5.443012E-3,6.918057E-2,1.7562725E-2,-9.751773E-2,-3.866944E-2,2.8315946E-2,-7.2555207E-3,-1.8004158E-1,-0E0,-1.5398662E-1,2.2222223E-2,-1.1363637E-1,1.3333335E-2,-1.1210872E-1,3.529412E-2,-3.6942676E-2,-1.1666667E-1,2.2222223E-2,-1.4237289E-1,-1.20092385E-1,-1.430303E-1,2.5641028E-2,-8.597561E-2,1.7391305E-2,-6.759003E-2,-7.958116E-2,-4.695122E-2,-7.617555E-2,4.0000003E-2,-5.365141E-2,-3.5825547E-2,-4.7739223E-2,-2.2150883E-2,-3.456011E-2,-1.8442154E-2,-2.2222223E-2,9.253731E-2],"split_indices":[9,9,8,7,9,8,8,7,7,7,3,8,9,8,8,2,7,7,18,26,1,47,8,1,44,29,5,44,2,14,2,0,7,36,40,28,43,24,0,6,21,36,41,7,7,2,9,0,24,27,7,31,30,6,16,1,20,16,32,40,47,28,47,0,0,0,0,0,0,0,0,0,0,0,0,0,0,0,0,0,0,0,0,0,0,0,0,0,0,0,0,0,0,0,0,0,0,0,0,0,0,0,0,0,0,0,0,0,0,0,0,0,0,0,0,0,0,0,0,0,0],"split_type":[0,0,0,0,0,0,0,0,0,0,0,0,0,0,0,0,0,0,0,0,0,0,0,0,0,0,0,0,0,0,0,0,0,0,0,0,0,0,0,0,0,0,0,0,0,0,0,0,0,0,0,0,0,0,0,0,0,0,0,0,0,0,0,0,0,0,0,0,0,0,0,0,0,0,0,0,0,0,0,0,0,0,0,0,0,0,0,0,0,0,0,0,0,0,0,0,0,0,0,0,0,0,0,0,0,0,0,0,0,0,0,0,0,0,0,0,0,0,0,0,0],"sum_hessian":[2.66715E4,1.542225E4,1.124925E4,6.054E3,9.36825E3,4.67375E3,6.5755E3,2.45775E3,3.59625E3,4.41825E3,4.95E3,1.68825E3,2.9855E3,2.92075E3,3.65475E3,8.3225E2,1.6255E3,2.19925E3,1.397E3,1.5435E3,2.87475E3,4.067E3,8.83E2,8.4275E2,8.455E2,1.70075E3,1.28475E3,2.01325E3,9.075E2,2.049E3,1.60575E3,1E0,8.3125E2,5.765E2,1.049E3,1.37525E3,8.24E2,1.395E3,2E0,1.5395E3,4E0,1.336E3,1.53875E3,3.44525E3,6.2175E2,4.0025E2,4.8275E2,1E0,8.4175E2,8.2175E2,2.375E1,1.6395E3,6.125E1,4.7225E2,8.125E2,1.81175E3,2.015E2,5.855E2,3.22E2,1.346E3,7.03E2,1.58425E3,2.15E1,3.565E2,4.7475E2,5.6625E2,1.025E1,7.6575E2,2.8325E2,1.335E3,4.025E1,8.21E2,3E0,1.266E3,1.29E2,6.75E2,8.645E2,3E0,1E0,6.525E1,1.27075E3,1.469E3,6.975E1,2.2245E3,1.22075E3,3.4375E2,2.78E2,2.81E2,1.1925E2,1.6675E2,3.16E2,8.4075E2,1E0,8.205E2,1.25E0,2.1E1,2.75E0,1.63625E3,3.25E0,3.825E1,2.3E1,1.25E0,4.71E2,6.485E2,1.64E2,8.75E0,1.803E3,2.2E1,1.795E2,9.45E1,4.91E2,3.18E2,4E0,1.026E3,3.2E2,2.3675E2,4.6625E2,7.1225E2,8.72E2,5.75E0,1.575E1],"tree_param":{"num_deleted":"0","num_feature":"48","num_nodes":"121","size_leaf_vector":"0"}},{"base_weights":[-1.1916866E-3,5.744036E-1,-7.907964E-1,1.0771867E0,1.9470412E-1,-1.2320553E0,-4.7825044E-1,8.641298E-1,1.3897098E0,3.770816E-1,1.8615184E-2,-1.5112787E0,-1.0821158E0,-6.833103E-1,-3.1441876E-1,9.985761E-1,7.3138076E-1,1.6391515E0,1.2779957E0,5.143753E-1,3.00485E-1,1.0064764E-1,-3.1856814E-1,-1.4017465E0,-1.6501334E0,-9.952623E-1,-1.1917255E0,-7.4603355E-1,-5.4360175E-1,-2.3951542E-1,-4.117111E-1,1.0979218E0,9.540433E-1,4.984897E-1,7.5813764E-1,-6.446565E-1,1.6433789E0,1.4037296E0,1.2208594E0,4.3619454E-1,6.059664E-1,3.4697437E-1,2.0315953E-1,5.699359E-1,5.0817598E-2,-7.217916E-1,4.2000543E-2,-1.4070204E0,3.7862355E-1,6.435001E-1,-1.6550719E0,-9.188651E-1,-1.0791532E0,-1.1749735E0,-1.5727859E0,-7.7030486E-1,-5.252506E-1,-4.7166717E-1,-6.726281E-1,-2.4665986E-1,5.660005E-1,-3.2560512E-1,-5.291214E-1,1.1067097E0,-3.1176206E-1,9.1093564E-1,1.1238052E0,-3.2647213E-1,6.028221E-1,7.613559E-1,-1.095876E0,1.7258269E0,1.5780758E0,1.4100977E0,1.3864751E-1,1.2264408E0,4.9331862E-1,7.042288E-1,3.8875505E-1,6.421862E-1,2.4548593E-1,3.5430467E-1,-4.2807198E-1,-4.194275E-1,2.3079322E-1,8.430905E-1,1.8916729E-1,-2.3461526E-2,2.3927517E-1,-8.810907E-1,-3.405458E-1,-1.1095486E-1,2.282964E-1,-1.4217141E0,-9.906763E-1,1.1677918E0,-5.804554E-1,-1.6584386E0,-7.539602E-1,-9.422436E-1,-5.5476034E-1,-1.0852695E0,3.2603198E-1,-9.936394E-1,-1.205832E0,-9.144014E-1,-1.6561333E0,-1.5507998E-1,-7.792628E-1,1.3075213E-1,-6.132297E-1,-4.8380345E-1,4.97009E-1,-6.8590766E-1,5.577104E-1,-3.143021E-1,-1.6509105E-1,6.2716365E-2,1.3840495E0,-2.1471946E-1,-4.3524465E-1,-5.357495E-1,8.873216E-1],"categories":[],"categories_nodes":[],"categories_segments":[],"categories_sizes":[],"default_left":[1,1,1,1,1,1,1,1,1,1,1,1,1,1,1,1,1,1,1,1,1,1,1,1,1,1,1,1,1,1,1,1,1,1,1,0,1,1,1,1,1,1,1,1,1,1,1,1,1,0,1,1,1,1,1,1,1,1,1,1,1,1,1,0,0,0,0,0,0,0,0,0,0,0,0,0,0,0,0,0,0,0,0,0,0,0,0,0,0,0,0,0,0,0,0,0,0,0,0,0,0,0,0,0,0,0,0,0,0,0,0,0,0,0,0,0,0,0,0,0,0,0,0],"id":1,"left_children":[1,3,5,7,9,11,13,15,17,19,21,23,25,27,29,31,33,35,37,39,41,43,45,47,49,51,53,55,57,59,61,63,65,67,69,-1,71,73,75,77,79,81,83,85,87,89,91,93,95,-1,97,99,101,103,105,107,109,111,113,115,117,119,121,-1,-1,-1,-1,-1,-1,-1,-1,-1,-1,-1,-1,-1,-1,-1,-1,-1,-1,-1,-1,-1,-1,-1,-1,-1,-1,-1,-1,-1,-1,-1,-1,-1,-1,-1,-1,-1,-1,-1,-1,-1,-1,-1,-1,-1,-1,-1,-1,-1,-1,-1,-1,-1,-1,-1,-1,-1,-1,-1,-1],"loss_changes":[1.2096979E4,2.9386855E3,1.547081E3,4.3982178E2,2.8170264E2,1.9313965E2,2.2053064E2,6.960889E1,7.26792E1,4.5159912E1,1.23506035E2,2.2369629E1,2.7663086E1,2.5158936E1,2.6532867E1,7.6030273E0,1.2002808E1,9.038818E0,1.16328125E1,1.0775269E1,1.2454987E1,8.395087E1,1.2706574E2,9.113647E0,9.107422E0,9.883057E0,6.671753E0,1.0370239E1,8.1067505E0,1.2036041E1,1.5884308E1,7.760193E0,8.912109E0,1.8070297E1,1.1455627E1,0E0,1.7194824E0,4.427124E0,4.6132812E0,1.0347519E1,9.0784E0,1.0787201E1,1.5534134E1,3.5684395E1,4.5467194E1,2.475412E1,1.31963215E1,4.1671143E0,3.3171585E0,0E0,8.997803E-1,7.093872E0,7.255127E0,5.977661E0,1.407608E0,9.851074E0,1.1755451E1,7.1305084E0,5.6522675E0,1.1257248E1,7.5203075E0,1.1077606E1,6.7690277E0,0E0,0E0,0E0,0E0,0E0,0E0,0E0,0E0,0E0,0E0,0E0,0E0,0E0,0E0,0E0,0E0,0E0,0E0,0E0,0E0,0E0,0E0,0E0,0E0,0E0,0E0,0E0,0E0,0E0,0E0,0E0,0E0,0E0,0E0,0E0,0E0,0E0,0E0,0E0,0E0,0E0,0E0,0E0,0E0,0E0,0E0,0E0,0E0,0E0,0E0,0E0,0E0,0E0,0E0,0E0,0E0,0E0,0E0,0E0,0E0],"parents":[2147483647,0,0,1,1,2,2,3,3,4,4,5,5,6,6,7,7,8,8,9,9,10,10,11,11,12,12,13,13,14,14,15,15,16,16,17,17,18,18,19,19,20,20,21,21,22,22,23,23,24,24,25,25,26,26,27,27,28,28,29,29,30,30,31,31,32,32,33,33,34,34,36,36,37,37,38,38,39,39,40,40,41,41,42,42,43,43,44,44,45,45,46,46,47,47,48,48,50,50,51,51,52,52,53,53,54,54,55,55,56,56,57,57,58,58,59,59,60,60,61,61,62,62],"right_children":[2,4,6,8,10,12,14,16,18,20,22,24,26,28,30,32,34,36,38,40,42,44,46,48,50,52,54,56,58,60,62,64,66,68,70,-1,72,74,76,78,80,82,84,86,88,90,92,94,96,-1,98,100,102,104,106,108,110,112,114,116,118,120,122,-1,-1,-1,-1,-1,-1,-1,-1,-1,-1,-1,-1,-1,-1,-1,-1,-1,-1,-1,-1,-1,-1,-1,-1,-1,-1,-1,-1,-1,-1,-1,-1,-1,-1,-1,-1,-1,-1,-1,-1,-1,-1,-1,-1,-1,-1,-1,-1,-1,-1,-1,-1,-1,-1,-1,-1,-1,-1,-1,-1],"split_conditions":[2.8358334E-1,-1.323875E0,1.3165834E0,4.3315E0,-4.0100002E-1,1.123625E0,1.4953749E0,1.305375E0,1.07825E0,1.5001249E0,3.95E1,6.9449997E0,2.93875E0,1.4054999E0,6.8025E-1,1.665E2,-1.455E2,9.855E-1,1.1194999E0,5.8926202E-2,1.0685E3,-9.15E1,1.625E0,2.850123E-1,-4.65E1,-4.615E2,4.1233397E-1,1.455E2,5.35E1,3.185E2,5.25E1,3.2682788E-1,1.0055E3,6.88408E-2,5.982456E-1,-6.446565E-2,1.0387499E0,5.225E2,9.181E3,-6.95E1,1.605E2,3.735E2,1.0985E3,8E-1,7.5090334E-2,6.55E1,1.8315E0,1.965E2,1.3560924E-1,6.435001E-2,5.32E2,1.619652E-1,3.2742882E-1,-3.474E3,3.136125E0,7.5E0,6.8685904E-2,1.0607611E-1,7.004648E-1,7.85E1,4.856512E-2,1.5837458E-1,2.2539683E-1,1.1067098E-1,-3.1176208E-2,9.109356E-2,1.1238052E-1,-3.2647215E-2,6.028221E-2,7.613559E-2,-1.095876E-1,1.7258269E-1,1.5780757E-1,1.4100978E-1,1.3864751E-2,1.2264408E-1,4.9331862E-2,7.042288E-2,3.8875505E-2,6.4218625E-2,2.4548594E-2,3.543047E-2,-4.28072E-2,-4.1942753E-2,2.3079323E-2,8.430905E-2,1.891673E-2,-2.3461527E-3,2.3927517E-2,-8.810907E-2,-3.405458E-2,-1.1095486E-2,2.282964E-2,-1.4217141E-1,-9.906763E-2,1.16779186E-1,-5.8045544E-2,-1.6584386E-1,-7.539602E-2,-9.4224356E-2,-5.5476036E-2,-1.08526945E-1,3.26032E-2,-9.9363945E-2,-1.205832E-1,-9.144014E-2,-1.6561334E-1,-1.5507998E-2,-7.792628E-2,1.3075213E-2,-6.132297E-2,-4.8380345E-2,4.97009E-2,-6.859077E-2,5.577104E-2,-3.143021E-2,-1.6509106E-2,6.2716366E-3,1.3840495E-1,-2.1471946E-2,-4.3524466E-2,-5.357495E-2,8.873216E-2],"split_indices":[9,9,8,8,9,8,8,7,7,7,3,9,9,8,9,6,44,7,7,47,4,3,8,24,3,6,20,44,2,2,2,30,5,21,18,0,7,14,6,6,14,1,4,7,43,2,8,44,21,0,44,29,31,6,9,1,20,24,17,15,22,21,32,0,0,0,0,0,0,0,0,0,0,0,0,0,0,0,0,0,0,0,0,0,0,0,0,0,0,0,0,0,0,0,0,0,0,0,0,0,0,0,0,0,0,0,0,0,0,0,0,0,0,0,0,0,0,0,0,0,0,0,0],"split_type":[0,0,0,0,0,0,0,0,0,0,0,0,0,0,0,0,0,0,0,0,0,0,0,0,0,0,0,0,0,0,0,0,0,0,0,0,0,0,0,0,0,0,0,0,0,0,0,0,0,0,0,0,0,0,0,0,0,0,0,0,0,0,0,0,0,0,0,0,0,0,0,0,0,0,0,0,0,0,0,0,0,0,0,0,0,0,0,0,0,0,0,0,0,0,0,0,0,0,0,0,0,0,0,0,0,0,0,0,0,0,0,0,0,0,0,0,0,0,0,0,0,0,0],"sum_hessian":[2.6614441E4,1.5393425E4,1.1221017E4,6.622428E3,8.770997E3,4.651288E3,6.569728E3,3.9401008E3,2.6823274E3,4.308003E3,4.4629937E3,1.6218798E3,3.0294084E3,2.9163318E3,3.6533962E3,1.9542955E3,1.9858053E3,8.25479E2,1.8568483E3,1.5406992E3,2.767304E3,3.590236E3,8.727577E2,9.128752E2,7.090046E2,1.6957759E3,1.3336327E3,2.0097142E3,9.066176E2,2.0661626E3,1.5872336E3,5.9756506E2,1.3567305E3,2.066617E2,1.7791436E3,1.2452631E0,8.242337E2,5.7279346E2,1.2840548E3,8.343081E2,7.063911E2,1.871013E3,8.962909E2,3.43624E2,3.246612E3,4.115359E2,4.612218E2,9.1038806E2,2.487113E0,1.2454891E0,7.077591E2,8.937833E2,8.0199255E2,1.2813844E3,5.2248203E1,1.8084208E3,2.0129349E2,5.850801E2,3.2153754E2,2.0486858E3,1.7476814E1,9.1786554E2,6.6936816E2,5.9407654E2,3.488506E0,1.0870592E3,2.6967136E2,2.296299E1,1.8369872E2,1.776649E3,2.4945748E0,3.5305643E2,4.711773E2,5.6981055E2,2.9829204E0,1.2735984E3,1.0456398E1,1.2337747E2,7.1093066E2,6.411856E2,6.520554E1,1.8540206E3,1.6992283E1,3.748886E1,8.5880206E2,1.9937956E2,1.4424443E2,2.3293801E3,9.17232E2,2.8933115E2,1.2220473E2,2.5349663E2,2.0772517E2,8.770216E2,3.3366455E1,1.2450327E0,1.2420805E0,7.042873E2,3.4717896E0,8.3836566E2,5.5417698E1,7.987436E2,3.2489882E0,1.9117633E2,1.0902081E3,7.2162213E0,4.5031982E1,2.6216263E1,1.7822045E3,2.3746338E1,1.7754715E2,5.7833484E2,6.7452507E0,3.185419E2,2.9956522E0,1.1183899E3,9.302959E2,1.1486623E1,5.9901905E0,4.5781024E2,4.600553E2,6.668694E2,2.4987864E0],"tree_param":{"num_deleted":"0","num_feature":"48","num_nodes":"123","size_leaf_vector":"0"}},{"base_weights":[-1.0871056E-3,5.197821E-1,-7.168205E-1,1.019199E0,2.011664E-1,-1.1245416E0,-4.319081E-1,1.2943342E0,8.332252E-1,4.0027702E-1,4.419772E-2,-1.4170243E0,-9.980591E-1,-6.180092E-1,-2.832311E-1,1.5091124E0,1.1847111E0,9.214107E-1,6.9456166E-1,5.33897E-1,3.2064912E-1,1.0902621E-1,-2.6618123E-1,-1.3116767E0,-1.5192988E0,-9.0417683E-1,-1.1000941E0,-5.3968996E-1,-7.138349E-1,-3.3593458E-1,-1.6164784E-1,2.8653454E-2,1.5162593E0,1.2848483E0,1.1287668E0,9.715508E-1,8.368055E-1,7.1859837E-1,4.5505774E-1,6.0441756E-1,4.5014954E-1,2.3525888E-1,3.9434212E-1,2.455033E-1,3.0940762E-3,-6.5419865E-1,3.9726533E-2,-1.317142E0,3.817438E-1,-1.5240554E0,6.358104E-1,-8.4707284E-1,-1.0018579E0,-1.0792658E0,-1.3634974E0,-4.0850425E-1,-5.846642E-1,-7.1689624E-1,1.0066475E0,-1.8519428E-1,-3.6013955E-1,-1.8311161E-1,3.2336086E-1,-1.3156251E0,1.1697323E0,1.5925446E0,1.4559364E0,1.3040493E0,7.6689494E-1,1.1839522E0,9.7631735E-1,9.9007374E-1,7.097101E-1,8.530302E-1,1.9809663E-1,6.309747E-1,7.947039E-1,-1.8586713E-1,5.4663795E-1,6.109988E-1,-1.0161203E0,3.7960944E-1,6.2243205E-1,-2.3822546E-1,2.5356978E-1,7.678274E-1,3.7822506E-1,-4.5745928E-2,4.0942413E-1,-1.2647482E-2,3.4535763E-1,-9.3091E-1,-4.7126597E-1,5.6070335E-2,-1.6114452E0,-1.3227241E0,7.171213E-2,-1.5915936E0,-1.4509586E0,-8.5595167E-1,-1.1423282E-1,6.946942E-1,-1.0077959E0,-1.0841178E0,-1.3027519E-1,-1.397242E0,-3.1722993E-1,7.293756E-1,-4.3331847E-1,-5.8953357E-1,6.9641775E-1,-7.411815E-1,-4.8854327E-1,-4.8434848E-1,-7.23696E-2,-4.6649447E-1,-3.140623E-1,-2.5663137E-1,-7.038567E-2,5.156371E-1,-7.644986E-1],"categories":[],"categories_nodes":[],"categories_segments":[],"categories_sizes":[],"default_left":[1,1,1,1,1,1,1,1,1,1,1,1,1,1,1,1,1,1,1,1,1,1,1,1,1,1,1,1,1,1,1,1,1,1,1,1,1,1,1,1,1,1,1,1,1,1,1,1,0,1,0,1,1,1,1,1,1,1,0,1,1,1,1,0,0,0,0,0,0,0,0,0,0,0,0,0,0,0,0,0,0,0,0,0,0,0,0,0,0,0,0,0,0,0,0,0,0,0,0,0,0,0,0,0,0,0,0,0,0,0,0,0,0,0,0,0,0,0,0,0,0],"id":2,"left_children":[1,3,5,7,9,11,13,15,17,19,21,23,25,27,29,31,33,35,37,39,41,43,45,47,49,51,53,55,57,59,61,63,65,67,69,71,73,75,77,79,81,83,85,87,89,91,93,95,-1,97,-1,99,101,103,105,107,109,111,-1,113,115,117,119,-1,-1,-1,-1,-1,-1,-1,-1,-1,-1,-1,-1,-1,-1,-1,-1,-1,-1,-1,-1,-1,-1,-1,-1,-1,-1,-1,-1,-1,-1,-1,-1,-1,-1,-1,-1,-1,-1,-1,-1,-1,-1,-1,-1,-1,-1,-1,-1,-1,-1,-1,-1,-1,-1,-1,-1,-1,-1],"loss_changes":[9.867877E3,2.437579E3,1.2946553E3,3.0423193E2,2.923455E2,1.6822314E2,1.8146094E2,5.4830322E1,4.2930176E1,4.3702637E1,1.0530142E2,1.2897217E1,2.9703125E1,2.1488403E1,2.3341248E1,8.516235E0,7.495117E0,8.413208E0,7.670288E0,8.812683E0,1.6181854E1,6.2579285E1,1.0735872E2,6.8708496E0,8.092041E0,8.4921875E0,6.9278564E0,9.247528E0,7.609192E0,9.223114E0,1.1572748E1,9.06408E0,1.3859863E0,4.619812E0,7.5317383E0,5.890503E0,8.2925415E0,7.906128E0,7.698618E0,9.495819E0,8.356934E0,1.0468971E1,8.057098E0,9.032604E1,1.3139905E1,1.9742584E1,1.3760823E1,5.4139404E0,0E0,1.1152344E0,0E0,6.8206177E0,6.8687134E0,6.4136963E0,3.3836517E0,1.2000313E1,7.8653564E0,6.880066E0,0E0,1.1924208E1,1.0599182E1,8.764816E0,1.0273792E1,0E0,0E0,0E0,0E0,0E0,0E0,0E0,0E0,0E0,0E0,0E0,0E0,0E0,0E0,0E0,0E0,0E0,0E0,0E0,0E0,0E0,0E0,0E0,0E0,0E0,0E0,0E0,0E0,0E0,0E0,0E0,0E0,0E0,0E0,0E0,0E0,0E0,0E0,0E0,0E0,0E0,0E0,0E0,0E0,0E0,0E0,0E0,0E0,0E0,0E0,0E0,0E0,0E0,0E0,0E0,0E0,0E0,0E0],"parents":[2147483647,0,0,1,1,2,2,3,3,4,4,5,5,6,6,7,7,8,8,9,9,10,10,11,11,12,12,13,13,14,14,15,15,16,16,17,17,18,18,19,19,20,20,21,21,22,22,23,23,24,24,25,25,26,26,27,27,28,28,29,29,30,30,31,31,32,32,33,33,34,34,35,35,36,36,37,37,38,38,39,39,40,40,41,41,42,42,43,43,44,44,45,45,46,46,47,47,49,49,51,51,52,52,53,53,54,54,55,55,56,56,57,57,59,59,60,60,61,61,62,62],"right_children":[2,4,6,8,10,12,14,16,18,20,22,24,26,28,30,32,34,36,38,40,42,44,46,48,50,52,54,56,58,60,62,64,66,68,70,72,74,76,78,80,82,84,86,88,90,92,94,96,-1,98,-1,100,102,104,106,108,110,112,-1,114,116,118,120,-1,-1,-1,-1,-1,-1,-1,-1,-1,-1,-1,-1,-1,-1,-1,-1,-1,-1,-1,-1,-1,-1,-1,-1,-1,-1,-1,-1,-1,-1,-1,-1,-1,-1,-1,-1,-1,-1,-1,-1,-1,-1,-1,-1,-1,-1,-1,-1,-1,-1,-1,-1,-1,-1,-1,-1,-1,-1],"split_conditions":[2.8358334E-1,-1.48525E0,1.3114166E0,1.179625E0,-5.57375E-1,1.119375E0,1.4953749E0,1.07825E0,1.305375E0,1.490875E0,4.15E1,6.9449997E0,2.93875E0,1.5105E0,1.6167083E0,-5.32E2,1.1194999E0,1.266125E0,5.3211715E-2,9.314103E-2,4.35E1,1.700625E0,1.625E0,2.802276E-1,5.46E3,-2.485E2,3.710425E-1,-6.09E2,5.945946E-1,-2.455E2,3.3875E3,3.65206E-1,1.0387499E0,7.3830545E-1,3.5E0,4.7182254E-2,5.261209E-1,5.1178664E-2,7.798329E-2,7.225E3,-1.05E1,-1.3098666E-1,7.5E0,-5E-1,3.9255077E-1,2.95E1,3.075E2,7.669211E-1,3.817438E-2,1.035E0,6.358104E-2,5.343032E-1,1.1583333E0,3.155E2,1.8706295E-1,8.77E2,4.8228127E-1,7.246113E-2,1.0066475E-1,1.518E0,4.941663E-2,1.7618814E-1,6.8825E3,-1.3156252E-1,1.16973236E-1,1.5925446E-1,1.4559364E-1,1.3040493E-1,7.66895E-2,1.18395224E-1,9.763174E-2,9.9007376E-2,7.097101E-2,8.530302E-2,1.9809663E-2,6.309747E-2,7.947039E-2,-1.8586714E-2,5.4663796E-2,6.1099883E-2,-1.0161203E-1,3.7960943E-2,6.2243205E-2,-2.3822546E-2,2.5356978E-2,7.678274E-2,3.7822507E-2,-4.5745927E-3,4.0942412E-2,-1.2647482E-3,3.4535762E-2,-9.3091E-2,-4.71266E-2,5.6070336E-3,-1.6114452E-1,-1.322724E-1,7.171213E-3,-1.5915936E-1,-1.4509587E-1,-8.559517E-2,-1.1423282E-2,6.946942E-2,-1.0077959E-1,-1.0841178E-1,-1.3027519E-2,-1.397242E-1,-3.1722993E-2,7.293756E-2,-4.3331847E-2,-5.8953356E-2,6.964178E-2,-7.411815E-2,-4.885433E-2,-4.843485E-2,-7.23696E-3,-4.664945E-2,-3.140623E-2,-2.5663137E-2,-7.038567E-3,5.156371E-2,-7.644986E-2],"split_indices":[9,9,8,7,9,8,8,7,7,7,3,9,9,9,8,44,7,7,24,26,1,7,8,24,4,6,20,6,19,44,5,18,7,36,40,25,18,22,19,5,3,47,10,44,20,2,12,37,0,8,0,19,8,15,28,5,27,47,0,8,30,20,4,0,0,0,0,0,0,0,0,0,0,0,0,0,0,0,0,0,0,0,0,0,0,0,0,0,0,0,0,0,0,0,0,0,0,0,0,0,0,0,0,0,0,0,0,0,0,0,0,0,0,0,0,0,0,0,0,0,0],"split_type":[0,0,0,0,0,0,0,0,0,0,0,0,0,0,0,0,0,0,0,0,0,0,0,0,0,0,0,0,0,0,0,0,0,0,0,0,0,0,0,0,0,0,0,0,0,0,0,0,0,0,0,0,0,0,0,0,0,0,0,0,0,0,0,0,0,0,0,0,0,0,0,0,0,0,0,0,0,0,0,0,0,0,0,0,0,0,0,0,0,0,0,0,0,0,0,0,0,0,0,0,0,0,0,0,0,0,0,0,0,0,0,0,0,0,0,0,0,0,0,0,0],"sum_hessian":[2.646738E4,1.5319218E4,1.1148164E4,5.965829E3,9.353389E3,4.584546E3,6.5636177E3,2.4037253E3,3.5621038E3,4.1225254E3,5.2308633E3,1.3809606E3,3.2035854E3,2.9135408E3,3.6500771E3,8.079637E2,1.5957617E3,2.173918E3,1.3881857E3,1.5372424E3,2.585283E3,4.3276094E3,9.0325397E2,6.87071E2,6.938895E2,1.6735845E3,1.5300009E3,1.6068658E3,1.3066748E3,2.5450818E3,1.1049955E3,3.9058049E0,8.0405786E2,5.640948E2,1.0316669E3,1.3583978E3,8.155202E2,1.2597559E3,1.2842984E2,8.311475E2,7.060949E2,1.1995367E3,1.3857461E3,1.890577E3,2.4370325E3,3.9768567E2,5.0556827E2,6.850822E2,1.9887887E0,6.926536E2,1.2359469E0,1.0622618E3,6.1132263E2,1.4226075E3,1.0739336E2,4.1281302E2,1.1940529E3,1.3049362E3,1.7386181E0,3.533277E2,2.191754E3,1.0587631E3,4.6232456E1,1.7230058E0,2.182799E0,3.4383667E2,4.602212E2,5.4246747E2,2.1627317E1,7.525014E2,2.791655E2,1.2660544E3,9.234335E1,7.9499005E2,2.053015E1,5.8988556E2,6.698703E2,1.5928002E1,1.1250184E2,8.284062E2,2.7413087E0,5.0324673E2,2.0284814E2,4.421492E1,1.1553218E3,5.5396114E1,1.33035E3,6.8111487E2,1.2094622E3,2.3307961E3,1.0623611E2,1.5664671E2,2.4103896E2,5.015696E2,3.9986482E0,6.8238715E2,2.6950758E0,3.4921762E2,3.4343597E2,1.0493799E3,1.28819E1,1.727634E0,6.09595E2,1.4152295E3,7.378053E0,1.0371292E2,3.6804411E0,8.204283E0,4.0460873E2,1.1900692E3,3.9836006E0,1.177467E3,1.2746916E2,9.586066E1,2.5746704E2,6.597661E2,1.5319879E3,6.400477E2,4.187153E2,3.9735348E1,6.497108E0],"tree_param":{"num_deleted":"0","num_feature":"48","num_nodes":"121","size_leaf_vector":"0"}},{"base_weights":[-9.840629E-4,5.1079834E-1,-6.0261893E-1,9.3888885E-1,2.1677233E-1,-1.0312932E0,-3.467001E-1,1.1943492E0,7.6363623E-1,4.15316E-1,1.0045426E-1,-1.2785237E0,-8.944939E-1,-5.2890027E-1,-1.894864E-1,1.4040339E0,1.0886021E0,8.8660586E-1,6.8427235E-1,3.5536385E-1,5.19102E-1,1.4842245E-1,-2.716661E-1,-1.3953633E0,-1.1623844E0,-8.233547E-1,-9.8789406E-1,-6.1341685E-1,-4.174408E-1,-2.7666214E-1,-1.10345066E-1,2.3650987E-2,1.4108208E0,1.1848468E0,1.0351348E0,1.0001097E0,8.447418E-1,6.863608E-1,-1.3502938E0,2.8544468E-1,4.5665985E-1,1.5984353E-1,5.5178493E-1,3.6989656E-1,9.564284E-2,-5.972662E-1,1.089782E-1,-1.3992678E0,6.269062E-1,-1.1750345E0,-7.014193E-1,-7.5681454E-1,-8.974261E-1,-1.083563E0,-9.300556E-1,-6.355816E-1,-4.1289985E-1,-5.262648E-1,-3.4038278E-1,-6.517664E-2,-3.0914786E-1,-2.0292522E-1,-3.4747615E-2,-1.233304E0,1.1080434E0,1.4867449E0,1.3512199E0,1.1922828E0,1.4643885E-1,1.0044041E0,1.2991512E0,9.272884E-1,1.2966673E0,6.4700943E-1,8.899595E-1,6.88969E-1,-6.8322843E-1,1.0503579E0,2.6814926E-1,5.254834E-1,3.204694E-1,4.5928127E-1,-3.940822E-1,5.12475E-1,8.2223463E-1,7.119591E-1,1.5668106E-1,-1.4284022E-1,1.3220407E-1,-9.8213893E-1,-4.5869818E-1,1.6965519E-1,-4.6702626E-1,-1.4852941E0,-1.3311695E0,-6.897674E-1,-1.1895288E0,-9.407502E-2,-9.986057E-1,-7.911838E-1,-5.0789595E-1,-8.68843E-1,-1.267417E0,-1.1294581E0,-8.30076E-1,-8.8384575E-1,-1.1063234E0,-6.6366935E-1,-4.5488885E-1,2.0689175E-1,-4.90273E-1,-5.414573E-1,8.04879E-1,-2.3237774E-3,-3.6989453E-1,3.787558E-1,-1.5050149E-1,-2.9894584E-1,-8.0101997E-1,-2.1669611E-1,6.342765E-1,-3.1240335E-1,5.6345545E-4],"categories":[],"categories_nodes":[],"categories_segments":[],"categories_sizes":[],"default_left":[1,1,1,1,1,1,1,1,1,1,1,1,1,1,1,1,1,1,1,1,1,1,1,1,1,1,1,1,1,1,1,1,1,1,1,1,1,1,0,1,1,1,1,1,1,1,1,1,0,1,1,1,1,1,1,1,1,1,1,1,1,1,1,0,0,0,0,0,0,0,0,0,0,0,0,0,0,0,0,0,0,0,0,0,0,0,0,0,0,0,0,0,0,0,0,0,0,0,0,0,0,0,0,0,0,0,0,0,0,0,0,0,0,0,0,0,0,0,0,0,0,0,0],"id":3,"left_children":[1,3,5,7,9,11,13,15,17,19,21,23,25,27,29,31,33,35,37,39,41,43,45,47,49,51,53,55,57,59,61,63,65,67,69,71,73,75,-1,77,79,81,83,85,87,89,91,93,-1,95,97,99,101,103,105,107,109,111,113,115,117,119,121,-1,-1,-1,-1,-1,-1,-1,-1,-1,-1,-1,-1,-1,-1,-1,-1,-1,-1,-1,-1,-1,-1,-1,-1,-1,-1,-1,-1,-1,-1,-1,-1,-1,-1,-1,-1,-1,-1,-1,-1,-1,-1,-1,-1,-1,-1,-1,-1,-1,-1,-1,-1,-1,-1,-1,-1,-1,-1,-1,-1],"loss_changes":[8.0857627E3,1.7858687E3,1.3238608E3,2.5774365E2,1.9425992E2,1.514497E2,2.1644604E2,5.0556885E1,3.286206E1,1.9152954E1,9.476303E1,2.0155762E1,1.8508057E1,3.2724792E1,2.7978394E1,7.3120117E0,6.831909E0,5.531006E0,9.801453E0,1.3844009E1,1.3247314E1,5.4919823E1,7.520778E1,7.154785E0,3.9040527E0,7.486206E0,5.921509E0,8.577942E0,1.2508606E1,1.3247314E1,1.48975525E1,7.981446E0,1.5214844E0,4.090332E0,6.927124E0,6.487976E0,8.246094E0,7.9265747E0,0E0,1.51968E1,7.3683167E0,1.6123201E1,1.0641968E1,6.58499E1,3.3133717E1,1.6984924E1,9.878066E0,2.6732178E0,0E0,4.7198486E0,4.2628756E0,7.118988E0,7.1328125E0,4.48114E0,5.4365234E0,8.778931E0,9.732697E0,1.3083359E1,8.864609E0,9.845051E0,8.1595E0,1.1171455E1,1.1505786E1,0E0,0E0,0E0,0E0,0E0,0E0,0E0,0E0,0E0,0E0,0E0,0E0,0E0,0E0,0E0,0E0,0E0,0E0,0E0,0E0,0E0,0E0,0E0,0E0,0E0,0E0,0E0,0E0,0E0,0E0,0E0,0E0,0E0,0E0,0E0,0E0,0E0,0E0,0E0,0E0,0E0,0E0,0E0,0E0,0E0,0E0,0E0,0E0,0E0,0E0,0E0,0E0,0E0,0E0,0E0,0E0,0E0,0E0,0E0,0E0],"parents":[2147483647,0,0,1,1,2,2,3,3,4,4,5,5,6,6,7,7,8,8,9,9,10,10,11,11,12,12,13,13,14,14,15,15,16,16,17,17,18,18,19,19,20,20,21,21,22,22,23,23,24,24,25,25,26,26,27,27,28,28,29,29,30,30,31,31,32,32,33,33,34,34,35,35,36,36,37,37,39,39,40,40,41,41,42,42,43,43,44,44,45,45,46,46,47,47,49,49,50,50,51,51,52,52,53,53,54,54,55,55,56,56,57,57,58,58,59,59,60,60,61,61,62,62],"right_children":[2,4,6,8,10,12,14,16,18,20,22,24,26,28,30,32,34,36,38,40,42,44,46,48,50,52,54,56,58,60,62,64,66,68,70,72,74,76,-1,78,80,82,84,86,88,90,92,94,-1,96,98,100,102,104,106,108,110,112,114,116,118,120,122,-1,-1,-1,-1,-1,-1,-1,-1,-1,-1,-1,-1,-1,-1,-1,-1,-1,-1,-1,-1,-1,-1,-1,-1,-1,-1,-1,-1,-1,-1,-1,-1,-1,-1,-1,-1,-1,-1,-1,-1,-1,-1,-1,-1,-1,-1,-1,-1,-1,-1,-1,-1,-1,-1,-1,-1,-1,-1,-1,-1],"split_conditions":[3.4166668E-2,-1.5176251E0,1.3165834E0,1.179625E0,-7.1837497E-1,1.1363333E0,1.507875E0,1.07825E0,1.266125E0,2.6225E0,5.55E1,1.07875E0,2.8249998E0,1.4054999E0,1.6167083E0,-5.32E2,1.1194999E0,5.35E1,5.505E2,5.35E1,-1.795E2,-5.35E1,1.8252916E0,9.685E2,2.345E2,-4.615E2,1.2285E3,1.455E2,4.377281E-1,-2.455E2,6.945E2,3.65206E-1,1.0387499E0,1.6121009E-1,8.9571305E-2,4.9674767E-1,7.05E1,5.982456E-1,-1.3502938E-1,1.4063333E0,1.9591111E-1,-2.64E2,3.5E0,1.5483333E0,-1.1143672E-1,-2.188988E-1,3.735E2,1.0387499E0,6.269062E-2,2.35E1,1.1013825E-1,-5.875E2,1.2158167E-1,2.373908E-2,5.5299795E-1,4.7556225E-2,6.620835E-2,3.29E2,4.5010823E-1,1.545E2,7.425E2,2.785E2,-1.4053848E-1,-1.2333041E-1,1.1080434E-1,1.4867449E-1,1.3512199E-1,1.1922828E-1,1.4643885E-2,1.00440405E-1,1.2991512E-1,9.2728846E-2,1.2966673E-1,6.4700946E-2,8.8995956E-2,6.8896905E-2,-6.8322845E-2,1.050358E-1,2.6814926E-2,5.2548345E-2,3.204694E-2,4.5928128E-2,-3.9408218E-2,5.1247504E-2,8.222347E-2,7.1195915E-2,1.5668107E-2,-1.4284022E-2,1.3220407E-2,-9.8213896E-2,-4.586982E-2,1.696552E-2,-4.6702627E-2,-1.4852941E-1,-1.3311695E-1,-6.8976745E-2,-1.18952885E-1,-9.407502E-3,-9.986057E-2,-7.9118386E-2,-5.0789595E-2,-8.6884305E-2,-1.2674169E-1,-1.1294581E-1,-8.30076E-2,-8.8384576E-2,-1.1063234E-1,-6.636693E-2,-4.5488887E-2,2.0689175E-2,-4.90273E-2,-5.414573E-2,8.04879E-2,-2.3237774E-4,-3.6989454E-2,3.787558E-2,-1.50501495E-2,-2.9894585E-2,-8.0102E-2,-2.1669611E-2,6.342765E-2,-3.1240335E-2,5.6345547E-5],"split_indices":[9,9,8,7,9,8,8,7,7,8,3,8,9,8,8,44,7,2,1,1,44,3,8,10,44,6,5,44,16,44,5,18,7,22,46,37,2,18,0,7,26,44,3,7,43,45,1,8,0,14,21,6,22,24,16,25,20,10,16,15,10,15,43,0,0,0,0,0,0,0,0,0,0,0,0,0,0,0,0,0,0,0,0,0,0,0,0,0,0,0,0,0,0,0,0,0,0,0,0,0,0,0,0,0,0,0,0,0,0,0,0,0,0,0,0,0,0,0,0,0,0,0,0],"split_type":[0,0,0,0,0,0,0,0,0,0,0,0,0,0,0,0,0,0,0,0,0,0,0,0,0,0,0,0,0,0,0,0,0,0,0,0,0,0,0,0,0,0,0,0,0,0,0,0,0,0,0,0,0,0,0,0,0,0,0,0,0,0,0,0,0,0,0,0,0,0,0,0,0,0,0,0,0,0,0,0,0,0,0,0,0,0,0,0,0,0,0,0,0,0,0,0,0,0,0,0,0,0,0,0,0,0,0,0,0,0,0,0,0,0,0,0,0,0,0,0,0,0,0],"sum_hessian":[2.6258479E4,1.4188847E4,1.2069632E4,5.7764155E3,8.412432E3,4.510812E3,7.55882E3,2.3479973E3,3.428418E3,3.1068203E3,5.3056113E3,1.603871E3,2.9069412E3,3.5000876E3,4.0587322E3,7.830399E2,1.5649575E3,1.3407825E3,2.0876357E3,1.972073E3,1.1347473E3,4.700318E3,6.052936E2,7.9403357E2,8.098374E2,1.655686E3,1.2512551E3,1.9880795E3,1.512008E3,1.9301444E3,2.128588E3,3.8530698E0,7.791868E2,5.51343E2,1.0136145E3,3.5510797E2,9.8567444E2,2.086157E3,1.4787105E0,1.168996E3,8.03077E2,9.511482E1,1.0396326E3,9.0341113E2,3.7969065E3,3.2592816E2,2.7936542E2,7.928109E2,1.2226424E0,7.8669916E2,2.3138235E1,8.780923E2,7.7759375E2,4.6476556E2,7.8648956E2,1.7882407E3,1.9983873E2,6.2439136E2,8.876167E2,2.574066E2,1.6727378E3,9.560637E2,1.1725242E3,1.7209442E0,2.1321256E0,3.3213907E2,4.4704776E2,5.472758E2,4.067214E0,9.1223706E2,1.0137745E2,2.8841348E2,6.6694496E1,1.8630229E2,7.9937213E2,2.0826875E3,3.4693308E0,2.4526976E1,1.144469E3,5.315838E2,2.714932E2,6.1850773E1,3.326405E1,9.102259E2,1.2940663E2,3.4599332E2,5.574178E2,5.0433072E2,3.292576E3,8.466983E1,2.4125832E2,2.5337958E2,2.5985844E1,3.4110025E2,4.5171066E2,2.4225317E1,7.624738E2,8.0346985E0,1.5103538E1,7.6964557E2,1.084467E2,7.24938E2,5.2655796E1,3.9059125E2,7.417432E1,6.2789624E2,1.585933E2,1.5453512E3,2.4288963E2,2.1992836E1,1.7784589E2,6.1793207E2,6.459298E0,7.13521E1,8.162646E2,4.094369E1,2.164629E2,1.6403232E3,3.2414505E1,9.4132135E2,1.4742362E1,1.3140689E2,1.0411173E3],"tree_param":{"num_deleted":"0","num_feature":"48","num_nodes":"123","size_leaf_vector":"0"}},{"base_weights":[-9.1284385E-4,4.2865294E-1,-5.9434843E-1,8.622459E-1,1.676625E-1,-9.510468E-1,-3.5327572E-1,1.1179469E0,7.021349E-1,3.3306128E-1,3.4616254E-2,-1.2260008E0,-8.356681E-1,-2.2800337E-1,-5.0487083E-1,1.3166708E0,1.0122156E0,7.759495E-1,5.7266176E-1,4.3957442E-1,2.600987E-1,-2.798981E-1,8.057611E-2,-1.1242844E0,-1.3266515E0,-7.5252676E-1,-9.271815E-1,-1.7383364E-1,-3.0188966E-1,-4.382945E-1,-5.9035385E-1,1.9498678E-2,1.3231771E0,1.0148141E0,-4.9791873E-1,8.42871E-1,7.2492224E-1,4.7259736E-1,6.270969E-1,4.4834313E-1,-2.1297343E-1,1.7938475E-1,3.2855704E-1,-4.1940266E-1,1.5533288E-1,3.298224E-1,3.6107067E-2,-1.1297231E0,4.4149676E-1,-1.3312345E0,6.1756647E-1,-7.6536465E-1,-4.0900454E-1,-9.095997E-1,-1.221795E0,4.1954127E-1,-1.8210943E-1,-2.2453412E-1,-4.0781125E-1,-3.61706E-1,-5.253E-1,-5.7461447E-1,-9.4310176E-1,-1.1618901E0,1.0535977E0,1.4003177E0,1.2631621E0,-1.6863286E-1,1.0180906E0,9.555515E-1,7.638071E-1,6.845634E-1,9.07515E-1,4.9770457E-1,-5.738936E-1,3.1009915E-1,6.6217923E-1,5.5798346E-1,4.0211308E-1,-7.056951E-1,5.244403E-1,2.5355274E-2,2.2779329E-1,3.565077E-1,1.0513646E-1,-1.4288595E-1,-6.012394E-1,-1.3482469E0,2.2409715E-1,7.1696764E-1,5.797105E-2,2.7525222E-3,1.6230042E-1,-1.1351852E0,1.5116215E-1,-1.334828E0,-5.0404817E-1,2.1002132E-1,-7.6970524E-1,-1.2047308E-1,-8.8065076E-1,-9.141698E-1,-3.0270666E-2,-1.2558727E0,-2.875435E-1,1.6100003E-1,1.2793529E0,-2.8909495E-1,-1.3508643E-1,-2.702773E-1,-3.7674569E-3,-3.866462E-1,-1.0893711E0,-3.7644067E-1,4.5886207E-1,-5.769156E-1,-1.9109784E-1,9.661124E-1,-5.7815325E-1,-1.0342855E0,5.547894E-1],"categories":[],"categories_nodes":[],"categories_segments":[],"categories_sizes":[],"default_left":[1,1,1,1,1,1,1,1,1,1,1,1,1,1,1,1,1,1,1,1,1,1,1,1,1,1,1,1,1,1,1,1,1,1,0,1,1,1,1,1,1,1,1,1,1,1,1,1,0,1,0,1,1,1,1,1,1,1,1,1,1,1,1,0,0,0,0,0,0,0,0,0,0,0,0,0,0,0,0,0,0,0,0,0,0,0,0,0,0,0,0,0,0,0,0,0,0,0,0,0,0,0,0,0,0,0,0,0,0,0,0,0,0,0,0,0,0,0,0,0,0],"id":4,"left_children":[1,3,5,7,9,11,13,15,17,19,21,23,25,27,29,31,33,35,37,39,41,43,45,47,49,51,53,55,57,59,61,63,65,67,-1,69,71,73,75,77,79,81,83,85,87,89,91,93,-1,95,-1,97,99,101,103,105,107,109,111,113,115,117,119,-1,-1,-1,-1,-1,-1,-1,-1,-1,-1,-1,-1,-1,-1,-1,-1,-1,-1,-1,-1,-1,-1,-1,-1,-1,-1,-1,-1,-1,-1,-1,-1,-1,-1,-1,-1,-1,-1,-1,-1,-1,-1,-1,-1,-1,-1,-1,-1,-1,-1,-1,-1,-1,-1,-1,-1,-1,-1],"loss_changes":[6.6306875E3,1.7073503E3,9.3886304E2,2.3132227E2,2.072901E2,1.3869263E2,1.2368518E2,4.45E1,3.290027E1,3.2521698E1,7.5505295E1,1.1814453E1,2.293042E1,1.4240936E1,1.6523193E1,6.3394775E0,6.109375E0,6.9675293E0,6.6251526E0,9.8558655E0,1.3725616E1,4.0502895E1,5.049552E1,6.059387E0,6.593628E0,6.8863525E0,6.5236816E0,1.0206547E1,1.2275253E1,1.0882233E1,6.610138E0,7.062499E0,1.7054443E0,5.701172E0,0E0,7.769165E0,8.710754E0,1.215554E1,8.913147E0,8.308624E0,8.834264E0,8.547188E0,8.384338E0,2.5286758E1,1.7091894E1,7.2557E1,1.6280834E1,4.7261353E0,0E0,1.2489014E0,0E0,6.819336E0,8.189334E0,5.577881E0,2.1889572E0,6.1690736E0,1.0199661E1,8.830284E0,8.750565E0,1.0896202E1,1.32703705E1,7.296112E0,7.876072E0,0E0,0E0,0E0,0E0,0E0,0E0,0E0,0E0,0E0,0E0,0E0,0E0,0E0,0E0,0E0,0E0,0E0,0E0,0E0,0E0,0E0,0E0,0E0,0E0,0E0,0E0,0E0,0E0,0E0,0E0,0E0,0E0,0E0,0E0,0E0,0E0,0E0,0E0,0E0,0E0,0E0,0E0,0E0,0E0,0E0,0E0,0E0,0E0,0E0,0E0,0E0,0E0,0E0,0E0,0E0,0E0,0E0,0E0],"parents":[2147483647,0,0,1,1,2,2,3,3,4,4,5,5,6,6,7,7,8,8,9,9,10,10,11,11,12,12,13,13,14,14,15,15,16,16,17,17,18,18,19,19,20,20,21,21,22,22,23,23,24,24,25,25,26,26,27,27,28,28,29,29,30,30,31,31,32,32,33,33,35,35,36,36,37,37,38,38,39,39,40,40,41,41,42,42,43,43,44,44,45,45,46,46,47,47,49,49,51,51,52,52,53,53,54,54,55,55,56,56,57,57,58,58,59,59,60,60,61,61,62,62],"right_children":[2,4,6,8,10,12,14,16,18,20,22,24,26,28,30,32,34,36,38,40,42,44,46,48,50,52,54,56,58,60,62,64,66,68,-1,70,72,74,76,78,80,82,84,86,88,90,92,94,-1,96,-1,98,100,102,104,106,108,110,112,114,116,118,120,-1,-1,-1,-1,-1,-1,-1,-1,-1,-1,-1,-1,-1,-1,-1,-1,-1,-1,-1,-1,-1,-1,-1,-1,-1,-1,-1,-1,-1,-1,-1,-1,-1,-1,-1,-1,-1,-1,-1,-1,-1,-1,-1,-1,-1,-1,-1,-1,-1,-1,-1,-1,-1,-1,-1,-1,-1,-1],"split_conditions":[2.8358334E-1,-1.5176251E0,1.3114166E0,1.166E0,-5.57375E-1,1.119375E0,1.051125E0,1.07825E0,1.305375E0,-1.0170834E0,-1.5281804E-1,6.9449997E0,2.93875E0,6.8025E-1,1.5105E0,-5.32E2,4.4222224E-1,1.2336667E0,3.976708E-2,3.8490027E-1,4.35E1,1.83125E0,-5.35E1,2.802276E-1,3.425E2,1.6077672E-1,3.8663667E-1,-1.485E2,5.25E1,-1.805E2,2.985E2,3.65206E-1,1.0387499E0,4.0687084E0,-4.9791873E-2,7.75E1,1.0055E3,5.395E2,-1.615E2,5.03E2,2.4480838E-1,9.9250674E-2,2.445E2,1.65E1,2.1423371E-1,1.709125E0,1.18858665E-1,7.669211E-1,4.414968E-2,6.5E0,6.1756648E-2,-5.640843E-1,8.5776955E-2,3.155E2,1.9090909E-1,2.27E2,4.0959746E-2,9.4570026E-2,4.395E2,3.6773157E-1,3.155E2,-1.735E2,3.58E2,-1.1618902E-1,1.0535977E-1,1.4003177E-1,1.2631622E-1,-1.6863286E-2,1.0180906E-1,9.555515E-2,7.6380715E-2,6.8456344E-2,9.07515E-2,4.9770456E-2,-5.738936E-2,3.1009916E-2,6.621792E-2,5.5798348E-2,4.021131E-2,-7.056951E-2,5.244403E-2,2.5355273E-3,2.2779329E-2,3.565077E-2,1.05136465E-2,-1.4288596E-2,-6.012394E-2,-1.348247E-1,2.2409715E-2,7.1696766E-2,5.797105E-3,2.7525224E-4,1.6230043E-2,-1.1351853E-1,1.5116215E-2,-1.334828E-1,-5.0404817E-2,2.1002132E-2,-7.6970525E-2,-1.20473085E-2,-8.806508E-2,-9.141698E-2,-3.0270666E-3,-1.2558727E-1,-2.8754352E-2,1.6100002E-2,1.2793529E-1,-2.8909495E-2,-1.3508643E-2,-2.702773E-2,-3.7674568E-4,-3.866462E-2,-1.0893711E-1,-3.764407E-2,4.5886207E-2,-5.7691563E-2,-1.9109784E-2,9.661124E-2,-5.7815325E-2,-1.0342856E-1,5.547894E-2],"split_indices":[9,9,8,7,9,8,9,7,7,9,47,9,9,9,9,44,26,7,22,26,1,8,3,24,6,29,20,3,2,6,6,18,7,8,0,12,5,44,44,4,27,20,44,3,37,8,45,37,0,40,0,43,28,15,28,5,34,29,44,27,13,3,11,0,0,0,0,0,0,0,0,0,0,0,0,0,0,0,0,0,0,0,0,0,0,0,0,0,0,0,0,0,0,0,0,0,0,0,0,0,0,0,0,0,0,0,0,0,0,0,0,0,0,0,0,0,0,0,0,0,0],"split_type":[0,0,0,0,0,0,0,0,0,0,0,0,0,0,0,0,0,0,0,0,0,0,0,0,0,0,0,0,0,0,0,0,0,0,0,0,0,0,0,0,0,0,0,0,0,0,0,0,0,0,0,0,0,0,0,0,0,0,0,0,0,0,0,0,0,0,0,0,0,0,0,0,0,0,0,0,0,0,0,0,0,0,0,0,0,0,0,0,0,0,0,0,0,0,0,0,0,0,0,0,0,0,0,0,0,0,0,0,0,0,0,0,0,0,0,0,0,0,0,0,0],"sum_hessian":[2.6008893E4,1.50877295E4,1.0921163E4,5.6683643E3,9.419365E3,4.403165E3,6.5179985E3,2.1803354E3,3.4880288E3,4.1984653E3,5.2209E3,1.2986895E3,3.1044756E3,3.570215E3,2.9477834E3,7.532102E2,1.4271252E3,2.218332E3,1.2696968E3,1.7047668E3,2.4936985E3,6.6500696E2,4.555893E3,6.5197784E2,6.467116E2,1.6314774E3,1.4729982E3,2.0618918E3,1.5083232E3,1.6605962E3,1.2871873E3,3.778966E0,7.494312E2,1.4250012E3,2.1240063E0,9.529852E2,1.2653468E3,4.5076624E2,8.1893054E2,1.6824714E3,2.2295467E1,1.1460728E3,1.3476257E3,5.036185E2,1.6138843E2,6.887991E2,3.867094E3,6.499986E2,1.979275E0,6.4550525E2,1.2063322E0,1.5715197E3,5.9957798E1,1.3939011E3,7.909699E1,2.7678095E1,2.0342137E3,8.735103E2,6.348129E2,8.859108E2,7.7468536E2,1.2347235E3,5.246375E1,1.7061856E0,2.0727804E0,3.1815497E2,4.3127625E2,3.7950308E0,1.4212062E3,3.883831E2,5.646022E2,1.0401824E3,2.2516446E2,4.4071704E2,1.0049193E1,8.258107E1,7.363494E2,4.9572583E2,1.1867456E3,1.3390967E1,8.904501E0,2.7442215E2,8.7165063E2,1.1972501E3,1.5037553E2,2.0050262E2,3.0311588E2,6.244355E0,1.5514407E2,2.834701E2,4.0532898E2,3.0594607E3,8.0763336E2,6.473518E2,2.6467557E0,6.4210205E2,3.403186E0,6.75252E0,1.5647671E3,3.7979263E1,2.1978535E1,1.3866548E3,7.2463527E0,7.598124E1,3.1157506E0,2.2192244E1,5.485851E0,6.1952924E2,1.4146844E3,7.233971E2,1.5011322E2,6.172134E2,1.759955E1,8.708151E2,1.5095719E1,6.70417E2,1.0426837E2,2.2061386E0,1.2325175E3,4.9745037E1,2.718712E0],"tree_param":{"num_deleted":"0","num_feature":"48","num_nodes":"121","size_leaf_vector":"0"}},{"base_weights":[-8.3303556E-4,4.229327E-1,-5.005222E-1,8.342618E-1,1.9931103E-1,-8.7914824E-1,-2.8406528E-1,1.1533469E0,7.2585213E-1,3.663879E-1,8.156009E-2,-7.7322066E-1,-1.1645176E0,-4.350316E-1,-1.5486303E-1,1.2554792E0,1.0392159E0,8.5354626E-1,6.4202386E-1,2.9094487E-1,4.4985834E-1,1.22595586E-1,-2.383294E-1,-8.6342704E-1,-6.907344E-1,-1.2733126E0,-1.0795665E0,-5.0723654E-1,-3.4021607E-1,-2.262137E-1,-9.027182E-2,1.2642845E0,1.5442427E-1,1.0509182E0,2.6452208E-1,8.331975E-1,1.0420884E0,-1.1078521E0,6.4421844E-1,3.476596E-1,1.8635629E-1,1.5187494E-1,4.772191E-1,2.826372E-1,7.086193E-2,-5.191024E-1,8.665514E-2,-8.473229E-1,-1.184382E0,-8.5413903E-1,-6.571482E-1,6.0910773E-1,-1.278974E0,-1.0914962E0,-3.7549907E-1,-5.0973713E-1,1.0632312E0,-4.388984E-1,-2.7061045E-1,-3.5202526E-2,-2.5563955E-1,-2.6518646E-1,-5.6621566E-2,4.1308174E-1,1.2672937E0,-9.4549835E-1,8.96581E-1,4.9168718E-1,1.0647408E0,-8.540105E-1,9.2711335E-1,8.6166227E-1,6.638783E-1,1.3569883E0,8.929596E-1,7.788212E-1,6.1038405E-1,3.156434E-1,5.6480193E-1,6.695952E-2,3.7217668E-1,4.2529008E-1,-2.0547077E-1,9.4842535E-1,4.5524722E-1,6.0828507E-1,1.043091E-1,1.576454E-1,-2.926513E-2,-6.525847E-1,-1.4097376E-1,2.369936E-1,-1.1666751E-1,-7.4067754E-1,-8.9536405E-1,-1.2258512E0,-1.6305883E-1,-3.2822737E-1,-8.994298E-1,-6.658102E-2,-6.69534E-1,-4.2823634E-1,-1.2821416E0,5.9799623E-1,-1.0953772E0,-6.7234415E-1,1.1630477E0,-5.3052443E-1,-3.226142E-1,1.309522E0,3.421838E-1,-4.5284206E-1,7.624838E-1,4.0831754E-1,-2.8350064E-1,2.3044546E-1,-1.6315752E-1,-2.4620287E-1,-7.3761034E-1,-3.8233936E-1,-2.8659035E-2,9.287688E-1,-6.296248E-2],"categories":[],"categories_nodes":[],"categories_segments":[],"categories_sizes":[],"default_left":[1,1,1,1,1,1,1,1,1,1,1,1,1,1,1,1,1,1,1,1,1,1,1,1,1,1,1,1,1,1,1,1,1,1,1,1,1,0,1,1,1,1,1,1,1,1,1,1,1,1,1,0,1,1,1,1,1,1,1,1,1,1,1,0,0,0,0,0,0,0,0,0,0,0,0,0,0,0,0,0,0,0,0,0,0,0,0,0,0,0,0,0,0,0,0,0,0,0,0,0,0,0,0,0,0,0,0,0,0,0,0,0,0,0,0,0,0,0,0,0,0,0,0],"id":5,"left_children":[1,3,5,7,9,11,13,15,17,19,21,23,25,27,29,31,33,35,37,39,41,43,45,47,49,51,53,55,57,59,61,63,65,67,69,71,73,-1,75,77,79,81,83,85,87,89,91,93,95,97,99,-1,101,103,105,107,109,111,113,115,117,119,121,-1,-1,-1,-1,-1,-1,-1,-1,-1,-1,-1,-1,-1,-1,-1,-1,-1,-1,-1,-1,-1,-1,-1,-1,-1,-1,-1,-1,-1,-1,-1,-1,-1,-1,-1,-1,-1,-1,-1,-1,-1,-1,-1,-1,-1,-1,-1,-1,-1,-1,-1,-1,-1,-1,-1,-1,-1,-1,-1,-1],"loss_changes":[5.4497256E3,1.2807964E3,9.6767334E2,1.6881274E2,1.7748163E2,1.2894336E2,1.4653052E2,1.3172607E1,3.8665527E1,2.3357117E1,6.952283E1,2.2734741E1,9.354004E0,2.3552368E1,1.8650932E1,6.113037E0,5.092102E0,4.6901855E0,9.221741E0,1.1573074E1,1.4349457E1,3.8833946E1,5.4997917E1,6.717041E0,8.455078E0,6.143982E0,5.1204224E0,8.259735E0,1.0192673E1,1.08069E1,1.2510727E1,1.1295166E0,5.9914985E0,3.984558E0,8.315035E0,5.7542725E0,5.2285156E0,0E0,9.604919E0,8.6577E0,1.5327848E1,1.4765189E1,1.6337158E1,6.6489685E1,3.0832159E1,1.6223198E1,8.586521E0,6.641968E0,2.7162704E0,6.2970886E0,9.955322E0,0E0,8.043823E-1,4.8967896E0,6.488476E0,7.463745E0,1.642716E-1,1.0719566E1,7.8423767E0,8.808403E0,7.4015045E0,9.495686E0,1.1217945E1,0E0,0E0,0E0,0E0,0E0,0E0,0E0,0E0,0E0,0E0,0E0,0E0,0E0,0E0,0E0,0E0,0E0,0E0,0E0,0E0,0E0,0E0,0E0,0E0,0E0,0E0,0E0,0E0,0E0,0E0,0E0,0E0,0E0,0E0,0E0,0E0,0E0,0E0,0E0,0E0,0E0,0E0,0E0,0E0,0E0,0E0,0E0,0E0,0E0,0E0,0E0,0E0,0E0,0E0,0E0,0E0,0E0,0E0,0E0,0E0],"parents":[2147483647,0,0,1,1,2,2,3,3,4,4,5,5,6,6,7,7,8,8,9,9,10,10,11,11,12,12,13,13,14,14,15,15,16,16,17,17,18,18,19,19,20,20,21,21,22,22,23,23,24,24,25,25,26,26,27,27,28,28,29,29,30,30,31,31,32,32,33,33,34,34,35,35,36,36,38,38,39,39,40,40,41,41,42,42,43,43,44,44,45,45,46,46,47,47,48,48,49,49,50,50,52,52,53,53,54,54,55,55,56,56,57,57,58,58,59,59,60,60,61,61,62,62],"right_children":[2,4,6,8,10,12,14,16,18,20,22,24,26,28,30,32,34,36,38,40,42,44,46,48,50,52,54,56,58,60,62,64,66,68,70,72,74,-1,76,78,80,82,84,86,88,90,92,94,96,98,100,-1,102,104,106,108,110,112,114,116,118,120,122,-1,-1,-1,-1,-1,-1,-1,-1,-1,-1,-1,-1,-1,-1,-1,-1,-1,-1,-1,-1,-1,-1,-1,-1,-1,-1,-1,-1,-1,-1,-1,-1,-1,-1,-1,-1,-1,-1,-1,-1,-1,-1,-1,-1,-1,-1,-1,-1,-1,-1,-1,-1,-1,-1,-1,-1,-1,-1,-1,-1],"split_conditions":[3.4166668E-2,-1.6662083E0,1.3114166E0,1.1194999E0,-7.1837497E-1,4.92375E0,1.507875E0,-6.9375E0,-2.9195833E0,2.6225E0,5.55E1,1.2165834E0,1.0537916E0,1.4054999E0,1.6167083E0,3.505E3,7.618751E-1,9.157923E-2,1.1583333E0,1.245E2,-1.795E2,-4.25E1,1.8252916E0,4.046862E-1,6.5E0,-1.45E1,7.6187587E-1,3.7749287E-1,4.377281E-1,-2.455E2,3.765282E-2,-5.32E2,9.2425E3,-2.345E2,3.727836E-1,5.5E0,3.2632686E-3,-1.1078521E-1,2.455E2,1.455E2,8.397372E-2,-2.835E2,-2.975E2,1.5483333E0,-2.09125E-1,7.45E1,1.19842514E-1,6.05E1,2.020202E-1,2.80625E-1,8.5E0,6.0910773E-2,-1.56925E4,1.25E-1,1.105E0,1.455E2,6.375E-1,3.29E2,4.406187E-1,4.21E2,2.1066856E-1,4.75E1,-7.58E2,4.1308176E-2,1.2672937E-1,-9.4549835E-2,8.9658104E-2,4.9168717E-2,1.0647408E-1,-8.540105E-2,9.271134E-2,8.6166225E-2,6.638783E-2,1.3569884E-1,8.929596E-2,7.788212E-2,6.1038405E-2,3.156434E-2,5.6480195E-2,6.6959523E-3,3.721767E-2,4.252901E-2,-2.0547077E-2,9.484254E-2,4.5524724E-2,6.0828507E-2,1.043091E-2,1.576454E-2,-2.926513E-3,-6.5258466E-2,-1.4097377E-2,2.369936E-2,-1.16667515E-2,-7.406776E-2,-8.9536406E-2,-1.2258512E-1,-1.6305884E-2,-3.282274E-2,-8.9942984E-2,-6.658102E-3,-6.6953406E-2,-4.2823635E-2,-1.2821417E-1,5.9799623E-2,-1.0953772E-1,-6.723442E-2,1.1630477E-1,-5.3052444E-2,-3.226142E-2,1.3095221E-1,3.4218382E-2,-4.5284208E-2,7.624838E-2,4.0831756E-2,-2.8350065E-2,2.3044547E-2,-1.6315753E-2,-2.4620287E-2,-7.376104E-2,-3.8233936E-2,-2.8659035E-3,9.287688E-2,-6.296248E-3],"split_indices":[9,9,8,7,9,9,8,9,9,8,3,8,8,8,8,5,36,46,7,11,44,3,8,20,38,3,37,35,16,44,20,44,4,44,20,40,29,0,4,15,47,44,6,7,9,2,20,1,28,16,38,0,6,37,8,44,17,10,16,13,31,3,44,0,0,0,0,0,0,0,0,0,0,0,0,0,0,0,0,0,0,0,0,0,0,0,0,0,0,0,0,0,0,0,0,0,0,0,0,0,0,0,0,0,0,0,0,0,0,0,0,0,0,0,0,0,0,0,0,0,0,0,0],"split_type":[0,0,0,0,0,0,0,0,0,0,0,0,0,0,0,0,0,0,0,0,0,0,0,0,0,0,0,0,0,0,0,0,0,0,0,0,0,0,0,0,0,0,0,0,0,0,0,0,0,0,0,0,0,0,0,0,0,0,0,0,0,0,0,0,0,0,0,0,0,0,0,0,0,0,0,0,0,0,0,0,0,0,0,0,0,0,0,0,0,0,0,0,0,0,0,0,0,0,0,0,0,0,0,0,0,0,0,0,0,0,0,0,0,0,0,0,0,0,0,0,0,0,0],"sum_hessian":[2.5734463E4,1.3925216E4,1.1809247E4,4.903324E3,9.021892E3,4.2944106E3,7.514837E3,1.2410043E3,3.6623203E3,3.7288757E3,5.2930156E3,3.134581E3,1.1598295E3,3.464443E3,4.0503936E3,6.496515E2,5.913528E2,1.4477716E3,2.2145486E3,1.9609745E3,1.7679012E3,4.691771E3,6.012446E2,1.492704E3,1.641877E3,5.0241312E2,6.574164E2,1.9642537E3,1.5001895E3,1.9233086E3,2.127085E3,6.443502E2,5.301223E0,5.8220166E2,9.151082E0,1.3116302E3,1.3614125E2,2.1427536E0,2.212406E3,1.269983E3,6.9099146E2,1.4922769E2,1.6186736E3,1.145042E3,3.546729E3,3.2224295E2,2.7900168E2,1.4248511E3,6.785285E1,2.757685E2,1.3661085E3,1.1868898E0,5.0122623E2,6.459216E2,1.1494816E1,1.9618053E3,2.4482684E0,6.1829913E2,8.818903E2,2.5703323E2,1.6662754E3,3.420778E2,1.7850072E3,2.7570367E0,6.415932E2,2.0254264E0,3.2757962E0,1.4925328E1,5.6727637E2,3.2967994E0,5.854283E0,1.1193616E3,1.9226875E2,4.1149853E1,9.4991394E1,4.3998837E2,1.7724175E3,1.108932E3,1.6105103E2,4.215133E2,2.6947818E2,8.443443E1,6.479326E1,7.023598E1,1.5484376E3,4.0431134E2,7.407306E2,1.8996576E3,1.6470715E3,2.3763141E2,8.461154E1,1.6030511E2,1.1869655E2,4.4761633E2,9.7723474E2,6.501285E1,2.8400025E0,2.2519646E1,2.5324886E2,2.819355E1,1.3379149E3,2.3645215E0,4.988617E2,1.1295052E0,6.4479205E2,1.0107658E1,1.3871571E0,1.7640082E3,1.977971E2,1.2165787E0,1.2316897E0,6.118212E2,6.477944E0,1.5860097E1,8.660302E2,8.329764E1,1.7373561E2,1.6357592E3,3.0516289E1,2.2835583E2,1.1372195E2,1.048283E1,1.7745244E3],"tree_param":{"num_deleted":"0","num_feature":"48","num_nodes":"123","size_leaf_vector":"0"}},{"base_weights":[-7.420423E-4,3.5502923E-1,-4.9562812E-1,7.708088E-1,1.5642314E-1,-8.142077E-1,-2.8944287E-1,1.0861871E0,6.662384E-1,3.0842873E-1,3.6733907E-2,-1.049235E0,-6.906117E-1,-1.8591264E-1,-4.161674E-1,1.1906985E0,9.7110415E-1,7.885477E-1,5.867472E-1,3.8787842E-1,2.2614594E-1,-2.379503E-1,7.491338E-2,-1.1685823E0,-9.352061E-1,-7.547271E-1,-6.107704E-1,-2.2713849E-1,-1.17155E-1,-3.5837722E-1,-4.9089947E-1,1.1993616E0,1.4124797E-1,-4.793326E-1,9.7643167E-1,8.135604E-1,6.487225E-1,-1.0166069E0,5.8882195E-1,-1.4053842E-1,3.9589503E-1,2.1362111E-1,5.778071E-1,-3.6831695E-1,1.1707959E-1,3.69964E-1,5.1841106E-2,-1.1755781E0,4.789134E-2,-9.1127723E-1,-1.2268301E0,-7.3719746E-1,-1.0662745E0,4.4476047E-1,-6.1630267E-1,-3.0681723E-1,-1.4121301E-1,-2.0140947E-1,-1.3793605E-2,-4.982619E-1,-3.164511E-1,-8.2201815E-1,-4.7440845E-1,1.2688497E0,1.1348777E0,-8.7902695E-1,8.5054904E-1,9.823665E-1,-1.777166E-1,7.917675E-1,1.0643033E0,-5.012331E-1,6.8150795E-1,7.1496415E-1,5.5727535E-1,-9.066771E-1,3.0666804E-1,3.8206154E-1,7.8082186E-1,1.9548143E-1,4.7068897E-1,-8.9569366E-1,6.359757E-1,-8.7212545E-1,-2.876732E-1,-1.2031153E0,1.8349384E-1,9.1458213E-1,2.6341194E-1,3.682502E-1,3.7727695E-2,-1.2649295E0,-1.1062212E0,1.402038E0,-1.0178372E0,-9.2696047E-1,-2.9956982E-1,-1.2574391E0,-1.2397336E-1,-7.564716E-1,-4.9688572E-1,-4.0130752E-1,-1.1601923E0,9.1801876E-1,-6.608498E-1,-5.8480245E-1,-7.935077E-1,-5.161512E-1,-2.726925E-1,-1.5362781E-1,7.31786E-1,-1.646063E-1,-8.381238E-1,-5.3303784E-1,1.6494999E-2,-6.103718E-1,-1.857225E-1,-3.285624E-1,3.8485885E-1,-1.2360886E0,-5.433547E-1,-3.282963E-2,-4.8583436E-1],"categories":[],"categories_nodes":[],"categories_segments":[],"categories_sizes":[],"default_left":[1,1,1,1,1,1,1,1,1,1,1,1,1,1,1,1,1,1,1,1,1,1,1,1,1,1,1,1,1,1,1,1,1,0,1,1,1,0,1,1,1,1,1,1,1,1,1,1,1,1,1,1,1,1,1,1,1,1,1,1,1,1,1,0,0,0,0,0,0,0,0,0,0,0,0,0,0,0,0,0,0,0,0,0,0,0,0,0,0,0,0,0,0,0,0,0,0,0,0,0,0,0,0,0,0,0,0,0,0,0,0,0,0,0,0,0,0,0,0,0,0,0,0],"id":6,"left_children":[1,3,5,7,9,11,13,15,17,19,21,23,25,27,29,31,33,35,37,39,41,43,45,47,49,51,53,55,57,59,61,63,65,-1,67,69,71,-1,73,75,77,79,81,83,85,87,89,91,93,95,97,99,101,103,105,107,109,111,113,115,117,119,121,-1,-1,-1,-1,-1,-1,-1,-1,-1,-1,-1,-1,-1,-1,-1,-1,-1,-1,-1,-1,-1,-1,-1,-1,-1,-1,-1,-1,-1,-1,-1,-1,-1,-1,-1,-1,-1,-1,-1,-1,-1,-1,-1,-1,-1,-1,-1,-1,-1,-1,-1,-1,-1,-1,-1,-1,-1,-1,-1,-1],"loss_changes":[4.4803823E3,1.2223696E3,6.9885034E2,1.5709497E2,1.8228618E2,1.2072974E2,8.471185E1,1.3156616E1,3.4503296E1,2.876773E1,5.8820328E1,1.8491333E1,1.3580933E1,1.0060715E1,1.2370239E1,5.460205E0,4.8863525E0,4.416626E0,7.8623657E0,9.562439E0,9.437447E0,3.1723507E1,3.3497795E1,6.0059204E0,4.052429E0,7.4993896E0,7.438843E0,1.5180908E1,1.1631802E1,9.471848E0,6.5126953E0,1.3114014E0,5.2368526E0,0E0,4.0791016E0,5.688843E0,8.615578E0,0E0,8.28241E0,1.2021896E1,1.1474701E1,9.68956E0,6.918026E0,2.0099487E1,1.6405926E1,2.0471424E1,2.0383324E1,2.9086914E0,8.582851E0,6.3286743E0,1.6433029E0,6.291809E0,4.4415817E0,4.2578297E0,6.351349E0,8.095123E0,1.1728167E1,1.7107496E1,9.461368E0,1.3092361E1,1.0879761E1,6.0907516E0,6.071472E0,0E0,0E0,0E0,0E0,0E0,0E0,0E0,0E0,0E0,0E0,0E0,0E0,0E0,0E0,0E0,0E0,0E0,0E0,0E0,0E0,0E0,0E0,0E0,0E0,0E0,0E0,0E0,0E0,0E0,0E0,0E0,0E0,0E0,0E0,0E0,0E0,0E0,0E0,0E0,0E0,0E0,0E0,0E0,0E0,0E0,0E0,0E0,0E0,0E0,0E0,0E0,0E0,0E0,0E0,0E0,0E0,0E0,0E0,0E0,0E0],"parents":[2147483647,0,0,1,1,2,2,3,3,4,4,5,5,6,6,7,7,8,8,9,9,10,10,11,11,12,12,13,13,14,14,15,15,16,16,17,17,18,18,19,19,20,20,21,21,22,22,23,23,24,24,25,25,26,26,27,27,28,28,29,29,30,30,31,31,32,32,34,34,35,35,36,36,38,38,39,39,40,40,41,41,42,42,43,43,44,44,45,45,46,46,47,47,48,48,49,49,50,50,51,51,52,52,53,53,54,54,55,55,56,56,57,57,58,58,59,59,60,60,61,61,62,62],"right_children":[2,4,6,8,10,12,14,16,18,20,22,24,26,28,30,32,34,36,38,40,42,44,46,48,50,52,54,56,58,60,62,64,66,-1,68,70,72,-1,74,76,78,80,82,84,86,88,90,92,94,96,98,100,102,104,106,108,110,112,114,116,118,120,122,-1,-1,-1,-1,-1,-1,-1,-1,-1,-1,-1,-1,-1,-1,-1,-1,-1,-1,-1,-1,-1,-1,-1,-1,-1,-1,-1,-1,-1,-1,-1,-1,-1,-1,-1,-1,-1,-1,-1,-1,-1,-1,-1,-1,-1,-1,-1,-1,-1,-1,-1,-1,-1,-1,-1,-1,-1,-1,-1,-1],"split_conditions":[2.8358334E-1,-1.6662083E0,1.3114166E0,1.1194999E0,-6.110833E-1,1.1363333E0,1.051125E0,-6.9375E0,-2.9195833E0,1.490875E0,-1.5281804E-1,1.07875E0,1.2336667E0,9.694821E-2,1.5105E0,3.505E3,3.5E0,3.3965E3,1.1583333E0,2.5E0,2.545E2,1.83125E0,-9.15E1,5.32E2,1.5128815E-1,3.941493E-1,-5.640843E-1,1.5708749E0,-2.7920038E-2,5.5E0,-9.045636E-2,1.035E0,9.2425E3,-4.793326E-2,5.225E2,9.065534E-2,6.123998E-2,-1.0166069E-1,2.455E2,1.0669643E-1,4.0575E3,2.165E2,-5.575E2,1.05E1,2.1162048E-1,2.15E1,7.5E0,1.0387499E0,3.6451608E-1,2.345E2,5.485232E-3,1.5284407E-1,-1.645671E-1,2.4850001E0,8.7134585E-2,-2.15E1,2.57E2,6.5396714E-1,1.25E1,3.155E2,1.6810709E-1,2.050106E-1,-7.338983E-2,1.2688498E-1,1.1348777E-1,-8.7902695E-2,8.5054904E-2,9.823665E-2,-1.777166E-2,7.917675E-2,1.0643033E-1,-5.012331E-2,6.8150796E-2,7.149642E-2,5.5727538E-2,-9.066772E-2,3.0666804E-2,3.8206156E-2,7.808219E-2,1.9548144E-2,4.7068898E-2,-8.956937E-2,6.3597575E-2,-8.721255E-2,-2.8767321E-2,-1.20311536E-1,1.8349385E-2,9.145822E-2,2.6341194E-2,3.682502E-2,3.7727696E-3,-1.2649296E-1,-1.1062212E-1,1.402038E-1,-1.01783715E-1,-9.269605E-2,-2.9956982E-2,-1.2574391E-1,-1.2397337E-2,-7.564716E-2,-4.9688574E-2,-4.0130753E-2,-1.1601923E-1,9.1801874E-2,-6.608498E-2,-5.8480244E-2,-7.935077E-2,-5.161512E-2,-2.726925E-2,-1.53627815E-2,7.3178604E-2,-1.6460631E-2,-8.381238E-2,-5.3303786E-2,1.6494999E-3,-6.1037183E-2,-1.857225E-2,-3.285624E-2,3.8485885E-2,-1.23608865E-1,-5.433547E-2,-3.282963E-3,-4.8583437E-2],"split_indices":[9,9,8,7,9,8,9,9,9,7,47,8,8,31,9,5,12,6,7,1,2,8,3,44,29,20,43,8,47,3,46,7,4,0,14,46,34,0,4,35,4,15,44,2,37,1,1,8,19,44,43,29,43,9,22,3,2,16,15,13,32,18,46,0,0,0,0,0,0,0,0,0,0,0,0,0,0,0,0,0,0,0,0,0,0,0,0,0,0,0,0,0,0,0,0,0,0,0,0,0,0,0,0,0,0,0,0,0,0,0,0,0,0,0,0,0,0,0,0,0,0,0,0],"split_type":[0,0,0,0,0,0,0,0,0,0,0,0,0,0,0,0,0,0,0,0,0,0,0,0,0,0,0,0,0,0,0,0,0,0,0,0,0,0,0,0,0,0,0,0,0,0,0,0,0,0,0,0,0,0,0,0,0,0,0,0,0,0,0,0,0,0,0,0,0,0,0,0,0,0,0,0,0,0,0,0,0,0,0,0,0,0,0,0,0,0,0,0,0,0,0,0,0,0,0,0,0,0,0,0,0,0,0,0,0,0,0,0,0,0,0,0,0,0,0,0,0,0,0],"sum_hessian":[2.5445139E4,1.4803357E4,1.0641782E4,4.7843965E3,1.0018961E4,4.180102E3,6.4616797E3,1.1890134E3,3.5953833E3,4.41294E3,5.606021E3,1.4380492E3,2.7420527E3,3.557651E3,2.904029E3,6.182292E2,5.707842E2,1.4127434E3,2.1826396E3,2.243232E3,2.169708E3,6.834772E2,4.922544E3,6.981202E2,7.3992896E2,1.5161097E3,1.2259431E3,2.2226726E3,1.3349783E3,1.6409105E3,1.2631185E3,6.1302594E2,5.2032714E0,1.7632421E0,5.6902094E2,1.1942843E3,2.1845908E2,2.188711E0,2.1804512E3,3.3276375E1,2.2099556E3,2.096641E3,7.306691E1,4.9988312E2,1.8359406E2,3.5592343E2,4.5666206E3,6.9416174E2,3.958453E0,6.8763104E2,5.2297924E1,1.4385345E3,7.757513E1,5.9779887E0,1.2199651E3,1.151923E3,1.0707495E3,7.349441E2,6.000342E2,3.7588892E2,1.2650216E3,5.7606483E1,1.2055121E3,2.86074E2,3.2695193E2,2.035736E0,3.1675353E0,5.6625793E2,2.7629771E0,1.1026102E3,9.167416E1,5.6595807E0,2.127995E2,4.3187842E2,1.7485726E3,1.1886098E1,2.1390278E1,2.1352131E3,7.474257E1,1.9600901E3,1.3655093E2,2.2280755E0,7.083883E1,6.762051E1,4.322626E2,7.9738116E0,1.7562024E2,5.6999454E1,2.9892398E2,1.9392465E2,4.372696E3,2.958214E2,3.9834033E2,1.60435E0,2.3541028E0,6.699395E2,1.7691544E1,5.0749252E1,1.5486706E0,1.3297355E3,1.0879908E2,1.0253073E1,6.732206E1,4.3049293E0,1.6730596E0,1.0394849E3,1.8048029E2,1.5948111E2,9.9244183E2,1.0565486E3,1.4201023E1,6.959741E2,3.8969967E1,3.215722E1,5.67877E2,2.7595065E2,9.993827E1,1.2440686E3,2.0952997E1,2.1791046E1,3.5815437E1,3.0503727E1,1.1750083E3],"tree_param":{"num_deleted":"0","num_feature":"48","num_nodes":"123","size_leaf_vector":"0"}},{"base_weights":[-7.1328116E-4,4.5150444E-1,-3.2556003E-1,7.511241E-1,2.6083753E-1,-1.2218111E-1,-6.826274E-1,1.0259633E0,6.450031E-1,1.8797159E-1,3.8982832E-1,-2.204529E-2,-2.4866131E-1,-5.483535E-1,-9.3212646E-1,1.1335511E0,9.094526E-1,7.2923034E-1,5.7093096E-1,2.2668956E-1,1.0782892E-1,6.79952E-1,3.7542406E-1,1.9935152E-1,-6.836476E-2,-3.2859945E-1,-1.9959538E-1,-6.476649E-1,-4.7558743E-1,-1.1102993E0,-8.32285E-1,-4.2426627E-2,1.140717E0,9.2127234E-1,1.6471946E-1,7.995348E-1,6.7766505E-1,-9.370832E-1,5.736542E-1,2.2095536E-1,1.0343659E0,8.268077E-2,4.8700732E-1,7.222015E-1,-4.8709103E-1,1.607098E-1,3.9947042E-1,5.406478E-1,-6.695145E-2,-3.974158E-1,-3.7295394E-2,-4.5687547E-1,-2.92525E-1,-6.289923E-1,-1.8954766E-1,-6.638255E-1,-3.333964E-1,-4.78494E-1,9.571136E-1,-1.1171741E0,5.0822318E-2,-8.396271E-1,-2.2137633E-1,-1.1022809E0,9.356217E-1,1.2142019E0,1.074084E0,3.832674E-1,9.350564E-1,-7.3715335E-1,8.9866674E-1,7.693071E-1,1.1006778E0,6.627581E-1,1.3904626E0,6.640532E-1,5.2517414E-1,2.643301E-1,1.419374E-1,1.346796E0,3.544831E-1,-6.801367E-1,9.098393E-2,3.2219574E-2,7.779036E-1,7.575856E-1,-4.8285884E-1,6.776899E-1,-1.4595137E0,-5.6722146E-1,2.5169E-1,4.0326387E-1,-6.282085E-1,7.165918E-1,1.1414405E-1,-8.316872E-2,1.3028364E0,-5.197902E-1,-6.778493E-2,-1.4613546E-1,4.3386454E-3,-5.6831694E-1,-1.0336283E-1,5.004558E-1,-3.0259305E-1,-7.4758035E-1,7.966646E-1,-1.8156826E-1,-6.2015146E-1,-6.8952876E-1,-4.3453678E-1,-4.5760423E-1,2.3879981E-1,6.3332784E-1,-4.8178056E-1,1.4669898E0,7.972071E-2,-1.2093204E0,-1.046485E0,1.315409E0,-9.751628E-1,-9.295723E-1,-7.7983975E-1,-6.259343E-1,1.0609099E0],"categories":[],"categories_nodes":[],"categories_segments":[],"categories_sizes":[],"default_left":[1,1,1,1,1,1,1,1,1,1,1,1,1,1,1,1,1,1,1,1,1,1,1,1,1,1,1,1,1,1,1,1,1,1,1,1,1,0,1,1,1,1,1,1,1,1,1,1,1,1,1,1,1,1,1,1,1,1,1,1,1,1,1,0,0,0,0,0,0,0,0,0,0,0,0,0,0,0,0,0,0,0,0,0,0,0,0,0,0,0,0,0,0,0,0,0,0,0,0,0,0,0,0,0,0,0,0,0,0,0,0,0,0,0,0,0,0,0,0,0,0,0,0,0,0],"id":7,"left_children":[1,3,5,7,9,11,13,15,17,19,21,23,25,27,29,31,33,35,37,39,41,43,45,47,49,51,53,55,57,59,61,63,65,67,69,71,73,-1,75,77,79,81,83,85,87,89,91,93,95,97,99,101,103,105,107,109,111,113,115,117,119,121,123,-1,-1,-1,-1,-1,-1,-1,-1,-1,-1,-1,-1,-1,-1,-1,-1,-1,-1,-1,-1,-1,-1,-1,-1,-1,-1,-1,-1,-1,-1,-1,-1,-1,-1,-1,-1,-1,-1,-1,-1,-1,-1,-1,-1,-1,-1,-1,-1,-1,-1,-1,-1,-1,-1,-1,-1,-1,-1,-1,-1,-1,-1],"loss_changes":[3.6955344E3,6.0058813E2,1.0630742E3,1.18605225E2,6.0346558E1,1.1814256E2,1.7746265E2,1.3226685E1,1.8005981E1,1.2727951E1,9.438171E0,5.3417526E1,1.610167E1,2.4667969E1,3.2115234E1,4.9974365E0,4.6994934E0,4.4541626E0,7.008484E0,1.2600967E1,1.2743494E1,5.7007217E0,1.1356903E1,8.195006E1,4.4020924E1,7.1140137E0,1.0911736E1,7.187378E0,8.779877E0,5.3571167E0,5.1708984E0,5.717891E0,1.5543213E0,3.663208E0,7.167855E0,4.410431E0,7.5955505E0,0E0,6.547241E0,9.394196E0,3.6129913E0,8.032647E0,1.09792595E1,4.847065E0,5.9584184E0,1.5007989E1,8.005798E0,2.9568352E1,1.1374043E1,1.495097E1,1.7840202E1,1.3414658E1,9.93325E0,1.0406031E1,8.476303E0,7.8710327E0,5.3225746E0,7.595276E0,1.8422103E0,3.0344849E0,7.5945115E0,5.6192627E0,8.72606E0,0E0,0E0,0E0,0E0,0E0,0E0,0E0,0E0,0E0,0E0,0E0,0E0,0E0,0E0,0E0,0E0,0E0,0E0,0E0,0E0,0E0,0E0,0E0,0E0,0E0,0E0,0E0,0E0,0E0,0E0,0E0,0E0,0E0,0E0,0E0,0E0,0E0,0E0,0E0,0E0,0E0,0E0,0E0,0E0,0E0,0E0,0E0,0E0,0E0,0E0,0E0,0E0,0E0,0E0,0E0,0E0,0E0,0E0,0E0,0E0,0E0,0E0],"parents":[2147483647,0,0,1,1,2,2,3,3,4,4,5,5,6,6,7,7,8,8,9,9,10,10,11,11,12,12,13,13,14,14,15,15,16,16,17,17,18,18,19,19,20,20,21,21,22,22,23,23,24,24,25,25,26,26,27,27,28,28,29,29,30,30,31,31,32,32,33,33,34,34,35,35,36,36,38,38,39,39,40,40,41,41,42,42,43,43,44,44,45,45,46,46,47,47,48,48,49,49,50,50,51,51,52,52,53,53,54,54,55,55,56,56,57,57,58,58,59,59,60,60,61,61,62,62],"right_children":[2,4,6,8,10,12,14,16,18,20,22,24,26,28,30,32,34,36,38,40,42,44,46,48,50,52,54,56,58,60,62,64,66,68,70,72,74,-1,76,78,80,82,84,86,88,90,92,94,96,98,100,102,104,106,108,110,112,114,116,118,120,122,124,-1,-1,-1,-1,-1,-1,-1,-1,-1,-1,-1,-1,-1,-1,-1,-1,-1,-1,-1,-1,-1,-1,-1,-1,-1,-1,-1,-1,-1,-1,-1,-1,-1,-1,-1,-1,-1,-1,-1,-1,-1,-1,-1,-1,-1,-1,-1,-1,-1,-1,-1,-1,-1,-1,-1,-1,-1,-1,-1,-1,-1,-1],"split_conditions":[-2.80375E-1,1.3196666E0,1.5105E0,1.1194999E0,2.6225E0,5.470834E-1,3.3484583E0,-6.9375E0,-2.9195833E0,1.0695E3,-2.975E2,-4.15E1,1.4953749E0,1.2734166E0,1.07875E0,-5.32E2,7.618751E-1,4.736109E-2,1.1583333E0,7.305E2,1.8010458E-1,4.0211642E-1,-1.455E2,1.6195E0,-2.0840266E-1,5.5E0,7.5E0,1.5947083E-1,5.982456E-1,5.32E2,1.7316341E-1,3.65206E-1,1.035E0,-2.345E2,3.7350836E-1,8.267969E-2,3.9032742E-1,-9.370832E-2,1.965E2,1.5912744E-1,9.4E1,3.85E1,7.215E2,6.927073E-2,3.3981726E-1,6.88408E-2,5.0116277E-1,6.55E1,3.04E2,3.5E0,-7.241705E-2,3.235E2,5.5E0,2.9741943E-1,2.1712556E-1,4.127971E-2,2.0138223E-1,-5.640843E-1,1.65E1,1.0387499E0,3.6451608E-1,-1.4809018E-1,5.14E3,-1.10228084E-1,9.356217E-2,1.214202E-1,1.07408404E-1,3.832674E-2,9.350564E-2,-7.371534E-2,8.9866675E-2,7.693071E-2,1.10067785E-1,6.627581E-2,1.3904627E-1,6.640532E-2,5.2517414E-2,2.643301E-2,1.4193741E-2,1.346796E-1,3.544831E-2,-6.801367E-2,9.098393E-3,3.2219575E-3,7.7790365E-2,7.575856E-2,-4.8285883E-2,6.776899E-2,-1.4595138E-1,-5.6722146E-2,2.5169E-2,4.0326387E-2,-6.282085E-2,7.165918E-2,1.1414405E-2,-8.316873E-3,1.3028364E-1,-5.1979017E-2,-6.778493E-3,-1.4613546E-2,4.3386454E-4,-5.6831695E-2,-1.0336283E-2,5.004558E-2,-3.0259306E-2,-7.475804E-2,7.966646E-2,-1.8156826E-2,-6.2015146E-2,-6.895288E-2,-4.345368E-2,-4.5760423E-2,2.387998E-2,6.333279E-2,-4.8178058E-2,1.4669898E-1,7.972072E-3,-1.2093204E-1,-1.0464849E-1,1.315409E-1,-9.751628E-2,-9.295723E-2,-7.7983975E-2,-6.259343E-2,1.06090985E-1],"split_indices":[9,7,9,7,8,9,9,9,9,4,6,3,8,8,8,44,36,35,7,6,47,20,44,8,45,3,13,29,19,44,28,18,7,44,20,46,21,0,6,26,15,10,6,25,45,21,20,1,15,44,43,13,15,45,31,24,27,43,3,8,19,45,5,0,0,0,0,0,0,0,0,0,0,0,0,0,0,0,0,0,0,0,0,0,0,0,0,0,0,0,0,0,0,0,0,0,0,0,0,0,0,0,0,0,0,0,0,0,0,0,0,0,0,0,0,0,0,0,0,0,0,0,0,0,0],"split_type":[0,0,0,0,0,0,0,0,0,0,0,0,0,0,0,0,0,0,0,0,0,0,0,0,0,0,0,0,0,0,0,0,0,0,0,0,0,0,0,0,0,0,0,0,0,0,0,0,0,0,0,0,0,0,0,0,0,0,0,0,0,0,0,0,0,0,0,0,0,0,0,0,0,0,0,0,0,0,0,0,0,0,0,0,0,0,0,0,0,0,0,0,0,0,0,0,0,0,0,0,0,0,0,0,0,0,0,0,0,0,0,0,0,0,0,0,0,0,0,0,0,0,0,0,0],"sum_hessian":[2.5154553E4,1.0515534E4,1.4639019E4,4.0882292E3,6.4273047E3,9.327558E3,5.311461E3,1.1364108E3,2.9518186E3,4.108757E3,2.318548E3,5.206604E3,4.1209536E3,3.4551748E3,1.8562861E3,5.86291E2,5.501198E2,1.3770889E3,1.5747297E3,2.7691267E3,1.3396301E3,1.074826E2,2.2110654E3,9.0025946E2,4.3063447E3,1.5652133E3,2.5557405E3,1.4577428E3,1.9974321E3,6.630013E2,1.1932849E3,3.5211504E0,5.8276984E2,5.412919E2,8.82797E0,5.7653326E2,8.005556E2,2.2200716E0,1.5725096E3,2.75087E3,1.8256592E1,1.2574506E3,8.217951E1,1.040953E2,3.387303E0,2.2345758E2,1.9876079E3,3.941207E2,5.061388E2,3.7051236E2,3.9358323E3,3.4099957E2,1.2242136E3,5.7027454E1,2.498713E3,1.3853896E3,7.235314E1,1.9940527E3,3.3793662E0,6.5913654E2,3.8647637E0,1.178744E3,1.4540932E1,1.6289408E0,1.8922095E0,2.6894604E2,3.138238E2,1.4241357E1,5.270505E2,3.9589062E0,4.869064E0,5.2717206E2,4.9361206E1,7.860465E2,1.45090475E1,5.445005E2,1.0280092E3,1.7744753E3,9.763948E2,1.1836415E1,6.420176E0,1.2668546E1,1.244782E3,3.249209E1,4.9687428E1,1.0148669E2,2.6086133E0,1.6791208E0,1.7081823E0,2.4244345E1,1.9921323E2,1.9809034E3,6.7044587E0,2.785368E2,1.15583885E2,5.011449E2,4.993897E0,2.697804E2,1.0073198E2,1.0882941E3,2.847538E3,2.5880588E2,8.21937E1,1.4737658E1,1.2094761E3,5.308721E1,3.9402406E0,2.4546482E3,4.4064674E1,1.243937E3,1.4145258E2,5.9613075E1,1.2740067E1,5.3121195E0,1.9887406E3,1.7123104E0,1.6670557E0,2.791481E2,3.799884E2,1.6047375E0,2.2600265E0,4.6485672E2,7.1388727E2,1.1442662E1,3.0982697E0],"tree_param":{"num_deleted":"0","num_feature":"48","num_nodes":"125","size_leaf_vector":"0"}},{"base_weights":[-6.215763E-4,3.7983757E-1,-3.2289612E-1,6.969428E-1,2.1011554E-1,-1.4864103E-1,-6.653123E-1,9.710656E-1,5.9385806E-1,3.1907374E-1,1.1988705E-1,-6.1524633E-2,-2.8278148E-1,-9.3346804E-1,-5.5524135E-1,1.0822377E0,8.5277694E-1,6.74864E-1,5.232869E-1,3.712994E-1,2.5029492E-1,1.9135907E-1,7.653046E-2,4.2729753E-1,-8.028066E-2,-3.6403567E-1,-2.3359647E-1,-8.339819E-1,-1.0801764E0,-6.241639E-1,-4.56694E-1,1.0910323E0,7.479766E-2,8.7144536E-1,3.717332E-1,6.798281E-1,3.1913638E-2,5.3635985E-1,2.0267217E-1,3.802014E-1,-4.2821985E-2,3.5551783E-1,1.7546423E-1,-9.189823E-2,2.1610963E-1,4.9987756E-2,2.471806E-1,1.0744691E0,2.5721055E-1,2.7421117E-1,-1.0040448E-1,-4.1561753E-1,-2.1292967E-1,-1.7010921E-1,-3.2938007E-1,-8.392357E-1,6.5677667E-1,-1.0883733E0,5.3056404E-2,-6.384703E-1,-3.3692795E-1,1.0776677E0,-4.6082377E-1,1.1673073E0,1.0219619E0,-8.478408E-1,7.556151E-1,8.7717724E-1,-3.1954002E-1,-7.5080144E-1,5.541387E-1,6.608819E-1,8.6453015E-1,-1.3333155E0,3.4268305E-1,5.397787E-1,-6.510205E-1,-7.197247E-2,7.035687E-1,-1.4781545E-1,3.877034E-1,7.3662114E-1,-3.0210125E-1,3.696342E-1,-7.6341105E-1,-2.144786E-2,2.1993677E-1,-3.1633407E-3,-7.562983E-1,3.948241E-1,1.7860413E-1,7.6198176E-2,-1.3212387E-1,4.3658704E-1,1.02776505E-1,-2.1833465E-1,1.1438929E0,-6.084132E-1,3.6225948E-1,6.079825E-1,-7.759095E-2,-3.718322E-1,-7.745452E-2,-4.2967477E-1,4.0706304E-1,7.69378E-1,-2.4421924E-1,-9.561756E-1,-1.6248624E-1,-3.6355424E-1,-1.480822E-1,-8.531701E-1,-4.2371777E-1,1.3115317E0,-3.359594E-1,-1.0925752E0,-2.513157E-1,1.239536E0,-9.3633574E-1,-6.5992904E-1,-4.4002336E-1,1.21137336E-1,-5.273647E-1,2.8193876E-2,1.5285995E0,-5.324944E-1,-3.940078E-1],"categories":[],"categories_nodes":[],"categories_segments":[],"categories_sizes":[],"default_left":[1,1,1,1,1,1,1,1,1,1,1,1,1,1,1,1,1,1,1,1,1,1,1,1,1,1,1,1,1,1,1,1,1,1,1,1,1,1,1,1,1,1,1,1,1,1,1,1,1,1,1,1,1,1,1,1,1,1,1,1,1,1,1,0,0,0,0,0,0,0,0,0,0,0,0,0,0,0,0,0,0,0,0,0,0,0,0,0,0,0,0,0,0,0,0,0,0,0,0,0,0,0,0,0,0,0,0,0,0,0,0,0,0,0,0,0,0,0,0,0,0,0,0,0,0,0,0],"id":8,"left_children":[1,3,5,7,9,11,13,15,17,19,21,23,25,27,29,31,33,35,37,39,41,43,45,47,49,51,53,55,57,59,61,63,65,67,69,71,73,75,77,79,81,83,85,87,89,91,93,95,97,99,101,103,105,107,109,111,113,115,117,119,121,123,125,-1,-1,-1,-1,-1,-1,-1,-1,-1,-1,-1,-1,-1,-1,-1,-1,-1,-1,-1,-1,-1,-1,-1,-1,-1,-1,-1,-1,-1,-1,-1,-1,-1,-1,-1,-1,-1,-1,-1,-1,-1,-1,-1,-1,-1,-1,-1,-1,-1,-1,-1,-1,-1,-1,-1,-1,-1,-1,-1,-1,-1,-1,-1,-1],"loss_changes":[3.0488457E3,6.1358484E2,8.0316516E2,1.117522E2,7.3000336E1,1.0425778E2,1.3348694E2,1.3342224E1,1.6176025E1,1.1993347E1,1.2583618E1,4.9645397E1,1.3955017E1,1.8361816E1,2.1594421E1,4.840088E0,4.438141E0,4.263733E0,6.3865356E0,7.0592346E0,1.139653E1,1.0777134E1,1.1457111E1,2.1750813E1,3.7208572E1,1.022261E1,1.3268723E1,6.7452393E0,4.9802246E0,7.5631714E0,8.920776E0,1.7077637E0,4.334682E0,3.7599792E0,4.8294215E0,4.0911865E0,5.2667627E0,6.3933105E0,8.623749E0,7.4661255E0,8.529015E0,9.82019E0,7.4697857E0,7.308119E0,9.389709E0,1.0475737E1,9.270422E0,3.959343E0,1.4749461E1,3.295449E1,3.0698605E1,1.1568237E1,1.0598617E1,7.7532616E0,5.351097E0,4.2040405E0,2.6105504E0,1.5761108E0,6.7472973E0,7.3829346E0,8.082398E0,1.787487E0,6.142853E0,0E0,0E0,0E0,0E0,0E0,0E0,0E0,0E0,0E0,0E0,0E0,0E0,0E0,0E0,0E0,0E0,0E0,0E0,0E0,0E0,0E0,0E0,0E0,0E0,0E0,0E0,0E0,0E0,0E0,0E0,0E0,0E0,0E0,0E0,0E0,0E0,0E0,0E0,0E0,0E0,0E0,0E0,0E0,0E0,0E0,0E0,0E0,0E0,0E0,0E0,0E0,0E0,0E0,0E0,0E0,0E0,0E0,0E0,0E0,0E0,0E0,0E0,0E0,0E0],"parents":[2147483647,0,0,1,1,2,2,3,3,4,4,5,5,6,6,7,7,8,8,9,9,10,10,11,11,12,12,13,13,14,14,15,15,16,16,17,17,18,18,19,19,20,20,21,21,22,22,23,23,24,24,25,25,26,26,27,27,28,28,29,29,30,30,31,31,32,32,33,33,34,34,35,35,36,36,37,37,38,38,39,39,40,40,41,41,42,42,43,43,44,44,45,45,46,46,47,47,48,48,49,49,50,50,51,51,52,52,53,53,54,54,55,55,56,56,57,57,58,58,59,59,60,60,61,61,62,62],"right_children":[2,4,6,8,10,12,14,16,18,20,22,24,26,28,30,32,34,36,38,40,42,44,46,48,50,52,54,56,58,60,62,64,66,68,70,72,74,76,78,80,82,84,86,88,90,92,94,96,98,100,102,104,106,108,110,112,114,116,118,120,122,124,126,-1,-1,-1,-1,-1,-1,-1,-1,-1,-1,-1,-1,-1,-1,-1,-1,-1,-1,-1,-1,-1,-1,-1,-1,-1,-1,-1,-1,-1,-1,-1,-1,-1,-1,-1,-1,-1,-1,-1,-1,-1,-1,-1,-1,-1,-1,-1,-1,-1,-1,-1,-1,-1,-1,-1,-1,-1,-1,-1,-1,-1,-1,-1,-1],"split_conditions":[-3.8625002E-2,1.3196666E0,1.6661667E0,1.1194999E0,1.5001249E0,8.0058336E-1,1.1363333E0,-6.9375E0,-2.9195833E0,1.4061251E0,5.05E1,-1.335E2,1.4054999E0,6.9449997E0,1.2734166E0,3.505E3,7.3830545E-1,8.828E3,1.5901566E-1,9.2169136E-2,4.378836E-1,4.5E0,3.8557313E-2,2.85E1,1.05E1,1.303989E-1,5.25E1,2.850123E-1,5.32E2,1.644803E-1,-5.252569E-1,1.035E0,9.2425E3,2.802276E-1,4.219409E-3,9.157923E-2,3.05E1,3.2682788E-1,8.624266E-2,7.5E0,3.1392252E-1,1.875E2,-6.5042846E-2,3.403776E-1,-7.757083E-1,5.2160573E-1,8.9065164E-2,-7.348276E-1,-1.52E2,4.95E1,-2.3023717E-1,4.3621624E-1,2.1825397E-1,2.3225E0,2.875E2,7.382329E-1,1.3560924E-1,6.5E0,3.6451608E-1,4.127971E-2,1.7970175E-1,5.498112E-2,1.5146735E-1,1.1673073E-1,1.02196194E-1,-8.478408E-2,7.5561516E-2,8.771773E-2,-3.1954E-2,-7.508015E-2,5.5413872E-2,6.608819E-2,8.645301E-2,-1.3333155E-1,3.4268305E-2,5.3977873E-2,-6.5102056E-2,-7.197247E-3,7.035687E-2,-1.4781545E-2,3.877034E-2,7.366212E-2,-3.0210126E-2,3.696342E-2,-7.634111E-2,-2.144786E-3,2.1993678E-2,-3.1633407E-4,-7.562983E-2,3.948241E-2,1.7860413E-2,7.6198177E-3,-1.3212387E-2,4.3658704E-2,1.027765E-2,-2.1833465E-2,1.1438929E-1,-6.0841322E-2,3.622595E-2,6.0798254E-2,-7.759095E-3,-3.718322E-2,-7.745452E-3,-4.296748E-2,4.0706303E-2,7.69378E-2,-2.4421925E-2,-9.561756E-2,-1.6248625E-2,-3.6355425E-2,-1.480822E-2,-8.531701E-2,-4.2371776E-2,1.3115317E-1,-3.3595942E-2,-1.0925752E-1,-2.5131572E-2,1.239536E-1,-9.363358E-2,-6.599291E-2,-4.4002336E-2,1.2113734E-2,-5.273647E-2,2.8193877E-3,1.5285996E-1,-5.3249445E-2,-3.9400782E-2],"split_indices":[9,7,9,7,7,9,8,9,9,7,12,3,8,9,8,5,36,6,28,24,17,15,25,1,1,35,2,24,44,29,47,7,4,25,33,46,14,30,29,2,37,15,47,47,9,36,30,46,44,12,47,26,16,7,13,37,21,40,19,24,26,35,21,0,0,0,0,0,0,0,0,0,0,0,0,0,0,0,0,0,0,0,0,0,0,0,0,0,0,0,0,0,0,0,0,0,0,0,0,0,0,0,0,0,0,0,0,0,0,0,0,0,0,0,0,0,0,0,0,0,0,0,0,0,0,0,0],"split_type":[0,0,0,0,0,0,0,0,0,0,0,0,0,0,0,0,0,0,0,0,0,0,0,0,0,0,0,0,0,0,0,0,0,0,0,0,0,0,0,0,0,0,0,0,0,0,0,0,0,0,0,0,0,0,0,0,0,0,0,0,0,0,0,0,0,0,0,0,0,0,0,0,0,0,0,0,0,0,0,0,0,0,0,0,0,0,0,0,0,0,0,0,0,0,0,0,0,0,0,0,0,0,0,0,0,0,0,0,0,0,0,0,0,0,0,0,0,0,0,0,0,0,0,0,0,0,0],"sum_hessian":[2.4863738E4,1.1402459E4,1.3461279E4,3.9741436E3,7.428316E3,8.922213E3,4.539067E3,1.0837684E3,2.8903752E3,3.3637632E3,4.0645525E3,5.4101167E3,3.5120962E3,1.3187753E3,3.2202915E3,5.544893E2,5.292792E2,1.341713E3,1.5486621E3,1.9094598E3,1.4543033E3,1.5333907E3,2.5311619E3,1.9910977E2,5.211007E3,1.3219006E3,2.1901956E3,7.89847E2,5.289283E2,1.8918362E3,1.3284553E3,5.4960846E2,4.880841E0,5.087249E2,2.0554255E1,1.3313763E3,1.0336747E1,1.4873433E3,6.131884E1,1.8693577E3,4.010218E1,6.0285297E2,8.5145044E2,1.2300057E2,1.4103901E3,2.1915793E3,3.3958252E2,4.033191E1,1.5877786E2,2.7924954E2,4.9317573E3,9.8418634E2,3.3771426E2,1.3188271E3,8.7136847E2,7.875086E2,2.3383582E0,5.251692E2,3.7590983E0,1.8009149E3,9.092123E1,2.8681848E0,1.3255872E3,2.5362643E2,2.9598203E2,1.9682101E0,2.9126306E0,5.065505E2,2.1744146E0,2.4375167E0,1.8116737E1,1.2116652E3,1.1971121E2,1.3065636E0,9.030184E0,1.4836168E3,3.7264118E0,4.0156887E1,2.1161953E1,2.5925436E1,1.8434323E3,9.550504E0,3.0551676E1,5.960034E2,6.8495216E0,1.5696608E2,6.944843E2,1.09394936E2,1.3605634E1,2.4299368E2,1.1673965E3,1.9163502E3,2.7522916E2,1.4602573E2,1.9355681E2,1.9461371E0,3.8385773E1,1.6664816E1,1.4211305E2,1.4292326E2,1.3632626E2,3.8329926E2,4.548458E3,9.6812164E2,1.6064722E1,9.696996E0,3.2801727E2,1.1471537E1,1.3073556E3,7.323223E2,1.3904613E2,7.609373E2,2.6571266E1,1.2155313E0,1.1228269E0,5.222424E2,2.9268086E0,1.5943396E0,2.1647587E0,1.6230802E3,1.7783469E2,2.6806452E1,6.411477E1,1.1813347E0,1.6868502E0,6.3619635E2,6.893908E2],"tree_param":{"num_deleted":"0","num_feature":"48","num_nodes":"127","size_leaf_vector":"0"}},{"base_weights":[-5.571444E-4,2.7923182E-1,-3.650168E-1,6.1390895E-1,1.2448704E-1,-6.516077E-1,-2.0403706E-1,9.199627E-1,5.197469E-1,2.530974E-1,4.849007E-2,-5.5624413E-1,-9.34753E-1,-1.2812476E-1,-3.1106287E-1,1.0352857E0,7.995024E-1,4.3481305E-1,6.032056E-1,2.0285797E-1,3.2064015E-1,7.7942826E-2,-1.7422125E-1,-6.654459E-1,-5.0340587E-1,-1.1108786E0,-8.718764E-1,-1.670749E-1,-6.068275E-2,-4.9256808E-1,-2.93051E-1,-9.063179E-2,1.0425783E0,8.6506313E-1,6.493697E-1,4.385003E-1,-1.0590074E0,5.8526385E-1,8.5654545E-1,2.7364197E-1,1.11872286E-1,4.855846E-1,2.8500506E-1,5.751099E-2,3.4827352E-1,-4.2906162E-1,4.4756707E-2,-7.176658E-1,-4.749524E-1,-2.2138742E-1,-5.1642084E-1,5.1978207E-1,-1.1231389E0,-8.7851226E-1,1.2747061E-1,-2.5092924E-1,-1.2950702E-1,-6.543912E-2,1.2221317E0,-8.435152E-1,-3.888937E-1,-3.3923662E-1,-2.2270072E-1,-1.062649E0,8.560307E-1,1.1238248E0,9.7084373E-1,8.7408304E-1,-6.7687035E-1,9.124553E-1,4.4908994E-1,4.4184536E-1,-7.9158694E-1,7.845577E-1,-1.9136521E0,1.0339665E-1,5.944596E-1,-4.3623492E-1,8.833482E-1,2.2718088E-1,4.3782356E-1,9.1355234E-2,5.9442663E-1,1.2131521E-1,5.922832E-1,3.0883625E-1,-1.6711755E-2,-1.1145905E-2,1.1393003E-1,7.1599656E-1,2.1973595E-1,-7.2873674E-2,-5.5775505E-1,1.7630887E-1,-1.22360334E-1,-8.711181E-1,-6.6807956E-1,5.147335E-1,-5.073824E-1,-4.6508282E-1,1.3857299E-1,-5.3706163E-1,-3.1918004E-1,-1.927385E-1,-1.1297847E0,-8.900111E-1,-2.6951763E-1,1.2585218E0,-9.477672E-1,-2.3917843E-1,-1.1897104E0,-1.0846494E-1,-3.4469357E-1,-2.2545593E-2,-1.8433863E-1,4.4122985E-1,1.5402695E0,-8.9431375E-1,6.670985E-1,-4.5689765E-1,2.9782864E-1,1.8364461E-1,-3.501227E-1,-9.392276E-2,-2.9836285E-1],"categories":[],"categories_nodes":[],"categories_segments":[],"categories_sizes":[],"default_left":[1,1,1,1,1,1,1,1,1,1,1,1,1,1,1,1,1,1,1,1,1,1,1,1,1,1,1,1,1,1,1,1,1,1,1,1,1,1,1,1,1,1,1,1,1,1,1,1,1,1,1,0,1,1,1,1,1,1,1,1,1,1,1,0,0,0,0,0,0,0,0,0,0,0,0,0,0,0,0,0,0,0,0,0,0,0,0,0,0,0,0,0,0,0,0,0,0,0,0,0,0,0,0,0,0,0,0,0,0,0,0,0,0,0,0,0,0,0,0,0,0,0,0,0,0],"id":9,"left_children":[1,3,5,7,9,11,13,15,17,19,21,23,25,27,29,31,33,35,37,39,41,43,45,47,49,51,53,55,57,59,61,63,65,67,69,71,73,75,77,79,81,83,85,87,89,91,93,95,97,99,101,-1,103,105,107,109,111,113,115,117,119,121,123,-1,-1,-1,-1,-1,-1,-1,-1,-1,-1,-1,-1,-1,-1,-1,-1,-1,-1,-1,-1,-1,-1,-1,-1,-1,-1,-1,-1,-1,-1,-1,-1,-1,-1,-1,-1,-1,-1,-1,-1,-1,-1,-1,-1,-1,-1,-1,-1,-1,-1,-1,-1,-1,-1,-1,-1,-1,-1,-1,-1,-1,-1],"loss_changes":[2.5067756E3,7.201572E2,4.9241223E2,1.2623242E2,9.294931E1,1.031521E2,5.5513E1,1.3525085E1,2.358783E1,1.1921692E1,3.9236877E1,1.6251587E1,9.727661E0,1.0502548E1,9.129425E0,4.400696E0,4.455353E0,9.669281E0,7.2006836E0,1.3033142E1,8.707886E0,2.915387E1,3.901155E1,8.952637E0,7.011322E0,5.5908813E0,4.862915E0,7.95739E0,9.029058E0,8.936001E0,8.3172E0,4.861865E0,1.9462891E0,5.4842834E0,7.965042E0,7.212158E0,8.44602E0,6.9643555E0,4.1937714E0,8.5978775E0,8.749815E0,1.0265369E1,8.921593E0,1.9028013E1,1.7376637E1,1.4766174E1,8.303494E0,4.982422E0,6.807377E0,7.7303696E0,7.380493E0,0E0,1.3212585E0,4.744751E0,8.002026E0,8.36031E0,7.902994E0,7.453219E0,6.790457E-1,4.9866257E0,9.401707E0,8.929306E0,9.975002E0,0E0,0E0,0E0,0E0,0E0,0E0,0E0,0E0,0E0,0E0,0E0,0E0,0E0,0E0,0E0,0E0,0E0,0E0,0E0,0E0,0E0,0E0,0E0,0E0,0E0,0E0,0E0,0E0,0E0,0E0,0E0,0E0,0E0,0E0,0E0,0E0,0E0,0E0,0E0,0E0,0E0,0E0,0E0,0E0,0E0,0E0,0E0,0E0,0E0,0E0,0E0,0E0,0E0,0E0,0E0,0E0,0E0,0E0,0E0,0E0,0E0,0E0],"parents":[2147483647,0,0,1,1,2,2,3,3,4,4,5,5,6,6,7,7,8,8,9,9,10,10,11,11,12,12,13,13,14,14,15,15,16,16,17,17,18,18,19,19,20,20,21,21,22,22,23,23,24,24,25,25,26,26,27,27,28,28,29,29,30,30,31,31,32,32,33,33,34,34,35,35,36,36,37,37,38,38,39,39,40,40,41,41,42,42,43,43,44,44,45,45,46,46,47,47,48,48,49,49,50,50,52,52,53,53,54,54,55,55,56,56,57,57,58,58,59,59,60,60,61,61,62,62],"right_children":[2,4,6,8,10,12,14,16,18,20,22,24,26,28,30,32,34,36,38,40,42,44,46,48,50,52,54,56,58,60,62,64,66,68,70,72,74,76,78,80,82,84,86,88,90,92,94,96,98,100,102,-1,104,106,108,110,112,114,116,118,120,122,124,-1,-1,-1,-1,-1,-1,-1,-1,-1,-1,-1,-1,-1,-1,-1,-1,-1,-1,-1,-1,-1,-1,-1,-1,-1,-1,-1,-1,-1,-1,-1,-1,-1,-1,-1,-1,-1,-1,-1,-1,-1,-1,-1,-1,-1,-1,-1,-1,-1,-1,-1,-1,-1,-1,-1,-1,-1,-1,-1,-1,-1,-1],"split_conditions":[2.7016667E-1,-1.6701667E0,1.3114166E0,1.1194999E0,-8.0058336E-1,4.92375E0,1.051125E0,-6.9375E0,3.94375E0,6.798561E-2,5.35E1,1.1734166E0,1.0387499E0,9.535E2,-1.55E1,-5.32E2,2.2188035E-1,3.19E2,3.7730974E-1,9.595E2,1.3645E0,2.3113999E-1,1.625E0,4.5E0,1.7752102E-1,7.5E0,1.5776509E-1,1.54725E0,1.5052257E-1,2.75E1,-3.4453206E-2,3.65206E-1,1.035E0,2.802276E-1,6.651518E-2,5.3658974E-1,5.586451E-2,5E-1,3.9642859E-1,7.105E2,4.065E2,3.2305503E-1,2.875138E-1,-7.7130664E-3,2.45E1,3.6297762E-1,7.598638E-2,-9.05525E-3,1.9090909E-1,2.8571873E-3,4.127971E-2,5.1978208E-2,-1.56925E4,6.915E2,9.788579E-3,3.435E2,9.261009E-2,1.2527399E-1,1.9935168E-1,4.27521E-1,3.3253968E-1,2.5E0,6.05E1,-1.06264904E-1,8.560307E-2,1.1238249E-1,9.708437E-2,8.7408304E-2,-6.7687035E-2,9.124553E-2,4.4908997E-2,4.4184536E-2,-7.915869E-2,7.845577E-2,-1.9136521E-1,1.0339665E-2,5.944596E-2,-4.3623492E-2,8.833482E-2,2.2718089E-2,4.3782357E-2,9.135524E-3,5.9442665E-2,1.21315215E-2,5.922832E-2,3.0883625E-2,-1.6711755E-3,-1.1145904E-3,1.1393003E-2,7.1599655E-2,2.1973595E-2,-7.2873677E-3,-5.5775505E-2,1.7630888E-2,-1.2236034E-2,-8.7111816E-2,-6.6807956E-2,5.147335E-2,-5.073824E-2,-4.6508282E-2,1.3857299E-2,-5.3706165E-2,-3.1918004E-2,-1.9273851E-2,-1.1297847E-1,-8.900111E-2,-2.6951764E-2,1.2585218E-1,-9.477672E-2,-2.3917845E-2,-1.1897104E-1,-1.0846495E-2,-3.446936E-2,-2.2545594E-3,-1.8433863E-2,4.4122986E-2,1.5402696E-1,-8.9431375E-2,6.670985E-2,-4.5689765E-2,2.9782865E-2,1.8364461E-2,-3.501227E-2,-9.3922755E-3,-2.9836286E-2],"split_indices":[9,9,8,7,9,9,9,9,8,47,3,8,8,5,3,44,20,3,21,4,7,47,8,40,16,1,23,8,46,12,47,18,7,25,34,47,35,39,17,5,11,17,26,45,1,37,30,46,16,25,24,0,6,10,25,11,33,34,46,27,21,2,1,0,0,0,0,0,0,0,0,0,0,0,0,0,0,0,0,0,0,0,0,0,0,0,0,0,0,0,0,0,0,0,0,0,0,0,0,0,0,0,0,0,0,0,0,0,0,0,0,0,0,0,0,0,0,0,0,0,0,0,0,0,0],"split_type":[0,0,0,0,0,0,0,0,0,0,0,0,0,0,0,0,0,0,0,0,0,0,0,0,0,0,0,0,0,0,0,0,0,0,0,0,0,0,0,0,0,0,0,0,0,0,0,0,0,0,0,0,0,0,0,0,0,0,0,0,0,0,0,0,0,0,0,0,0,0,0,0,0,0,0,0,0,0,0,0,0,0,0,0,0,0,0,0,0,0,0,0,0,0,0,0,0,0,0,0,0,0,0,0,0,0,0,0,0,0,0,0,0,0,0,0,0,0,0,0,0,0,0,0,0],"sum_hessian":[2.4581031E4,1.3905935E4,1.0675097E4,4.395822E3,9.510113E3,3.8384631E3,6.8366333E3,1.0321776E3,3.363644E3,3.5314607E3,5.978652E3,2.8735974E3,9.6486566E2,4.000978E3,2.8356553E3,5.234538E2,5.0872382E2,1.6701675E3,1.6934767E3,2.0274293E3,1.5040315E3,5.28092E3,6.9773224E2,9.33246E2,1.9403514E3,2.4945148E2,7.154142E2,2.5352844E3,1.4656937E3,2.5361705E2,2.5820383E3,3.2950714E0,5.2015875E2,3.5078088E2,1.5794295E2,1.6667599E3,3.4076414E0,1.5845663E3,1.0891036E2,1.1391775E3,8.882518E2,2.6496393E2,1.2390676E3,4.910958E3,3.6996182E2,3.2201773E2,3.7571454E2,7.3028577E2,2.0296019E2,8.6390114E1,1.8539613E3,1.5526187E0,2.4789886E2,7.108151E2,4.5990176E0,7.826565E2,1.7526279E3,1.4612249E3,4.4688807E0,5.6208843E1,1.974082E2,1.556415E3,1.0256232E3,1.5653129E0,1.7297585E0,2.3703105E2,2.831277E2,3.4917145E2,1.6094359E0,6.673049E1,9.121245E1,1.6628787E3,3.881202E0,1.105329E0,2.3023124E0,2.9902092E1,1.5546642E3,1.9018658E0,1.0700849E2,8.8976904E2,2.4940848E2,8.531665E2,3.5085278E1,6.0512173E1,2.0445175E2,1.1483419E3,9.0725685E1,2.2155886E3,2.6953694E3,9.4640854E1,2.7532098E2,8.588313E1,2.361346E2,2.1019614E2,1.655184E2,1.743048E2,5.55981E2,5.967715E0,1.9699246E2,5.1340347E1,3.504977E1,1.6767684E3,1.7719289E2,1.9709474E0,2.4592792E2,6.971896E2,1.3625578E1,2.1582637E0,2.4407537E0,7.742203E2,8.436217E0,1.5978824E3,1.5474539E2,1.0747086E3,3.8651627E2,1.9845393E0,2.4843411E0,5.4774868E1,1.433975E0,1.7992543E2,1.748278E1,3.141915E1,1.524996E3,3.8040692E2,6.4521625E2],"tree_param":{"num_deleted":"0","num_feature":"48","num_nodes":"125","size_leaf_vector":"0"}},{"base_weights":[-5.1041634E-4,3.457747E-1,-2.46801E-1,6.4968634E-1,2.169895E-1,-1.0566349E-1,-5.7102674E-1,9.79235E-1,5.752946E-1,3.332079E-1,1.4631727E-1,-3.3499174E-2,-2.2552583E-1,-4.8523268E-1,-8.869684E-1,-8.831493E-2,9.855918E-1,5.004168E-1,6.675446E-1,3.3583242E-1,-9.274158E-1,1.396757E-1,4.5591405E-1,6.3225615E-1,-4.2337757E-2,-3.0162454E-1,-1.8453276E-1,-4.1713884E-1,-5.8905387E-1,-1.0153952E0,-7.9422814E-1,-1.0127015E0,8.2466877E-1,1.087053E0,9.123959E-1,5.12789E-1,4.2719826E-2,6.001231E-1,7.6945716E-1,1.0916996E0,3.319403E-1,-1.3489695E0,4.0513572E-1,1.4307134E-1,-7.5971276E-1,5.4147446E-1,-7.311493E-1,1.0320035E0,2.5617838E-1,2.4714516E-1,-5.8291744E-2,-3.252017E-1,1.976617E-2,-1.781308E-1,-7.876605E-1,8.1247836E-1,-4.2056477E-1,-6.720949E-1,-5.192443E-1,-1.0223534E0,2.2493148E-1,-8.077505E-1,-6.656062E-2,1.1010655E0,4.9152175E-1,9.2028105E-1,-6.623628E-1,4.8003307E-1,6.8660104E-1,-1.0616667E0,3.0472043E-1,7.316873E-1,5.039138E-1,7.7961755E-1,-6.59004E-1,-4.7780266E-1,1.283022E0,1.542181E-1,3.5044372E-1,1.3234323E-1,3.3655968E-1,-1.3930061E0,-2.3843033E-2,-1.3491435E-1,7.5518405E-1,-1.1478386E0,1.7806698E-1,3.501031E-1,1.1508001E0,-3.4648812E-1,5.3086406E-1,6.6006577E-1,-1.768494E-2,-2.1389008E-1,-3.2601587E-2,-3.392433E-1,2.3678184E-1,9.0737915E-1,-1.2077503E-1,-2.0285784E-1,-2.8113322E-2,-1.008485E0,7.3116444E-2,4.742257E-2,1.6216731E0,-5.5984116E-1,-3.86531E-1,-6.8458027E-1,1.8080008E-1,-2.0942499E-1,-5.4845506E-1,-1.06142E0,-8.394239E-1,-8.269669E-1,-3.0004E-1,6.090599E-1,-7.757385E-1],"categories":[],"categories_nodes":[],"categories_segments":[],"categories_sizes":[],"default_left":[1,1,1,1,1,1,1,1,1,1,1,1,1,1,1,1,1,1,1,1,1,1,1,1,1,1,1,1,1,1,1,0,0,1,1,1,1,1,1,1,1,0,0,1,1,1,1,1,1,1,1,1,1,1,1,1,1,1,1,1,0,1,1,0,0,0,0,0,0,0,0,0,0,0,0,0,0,0,0,0,0,0,0,0,0,0,0,0,0,0,0,0,0,0,0,0,0,0,0,0,0,0,0,0,0,0,0,0,0,0,0,0,0,0,0,0,0],"id":10,"left_children":[1,3,5,7,9,11,13,15,17,19,21,23,25,27,29,31,33,35,37,39,41,43,45,47,49,51,53,55,57,59,61,-1,-1,63,65,67,69,71,73,75,77,-1,-1,79,81,83,85,87,89,91,93,95,97,99,101,103,105,107,109,111,-1,113,115,-1,-1,-1,-1,-1,-1,-1,-1,-1,-1,-1,-1,-1,-1,-1,-1,-1,-1,-1,-1,-1,-1,-1,-1,-1,-1,-1,-1,-1,-1,-1,-1,-1,-1,-1,-1,-1,-1,-1,-1,-1,-1,-1,-1,-1,-1,-1,-1,-1,-1,-1,-1,-1,-1],"loss_changes":[2.0733457E3,3.953235E2,6.5002454E2,7.315039E1,5.8251892E1,8.5616264E1,1.1635034E2,3.835144E0,1.6627014E1,9.189453E0,9.01619E0,3.6392334E1,1.15486145E1,2.3723328E1,1.0137573E1,4.368893E0,3.0863647E0,7.6757507E0,7.0766907E0,7.5177307E0,3.8275537E0,1.3315765E1,9.7702675E0,1.191803E1,2.8186832E1,9.862694E0,9.204376E0,8.981476E0,7.4219666E0,3.5242615E0,5.241577E0,0E0,0E0,1.3356934E0,4.6480103E0,7.2055054E0,1.0991532E1,8.046631E0,6.802307E0,4.60223E0,8.713898E0,0E0,0E0,8.900139E0,7.6208506E0,1.262977E1,2.716562E0,2.752411E0,7.31616E0,3.4875397E1,2.3106537E1,9.643524E0,1.1317084E1,8.8823395E0,4.8498707E0,3.662024E0,9.481415E0,6.6070557E0,6.5157776E0,1.8229675E0,0E0,4.90567E0,5.6989007E0,0E0,0E0,0E0,0E0,0E0,0E0,0E0,0E0,0E0,0E0,0E0,0E0,0E0,0E0,0E0,0E0,0E0,0E0,0E0,0E0,0E0,0E0,0E0,0E0,0E0,0E0,0E0,0E0,0E0,0E0,0E0,0E0,0E0,0E0,0E0,0E0,0E0,0E0,0E0,0E0,0E0,0E0,0E0,0E0,0E0,0E0,0E0,0E0,0E0,0E0,0E0,0E0,0E0,0E0],"parents":[2147483647,0,0,1,1,2,2,3,3,4,4,5,5,6,6,7,7,8,8,9,9,10,10,11,11,12,12,13,13,14,14,15,15,16,16,17,17,18,18,19,19,20,20,21,21,22,22,23,23,24,24,25,25,26,26,27,27,28,28,29,29,30,30,33,33,34,34,35,35,36,36,37,37,38,38,39,39,40,40,43,43,44,44,45,45,46,46,47,47,48,48,49,49,50,50,51,51,52,52,53,53,54,54,55,55,56,56,57,57,58,58,59,59,61,61,62,62],"right_children":[2,4,6,8,10,12,14,16,18,20,22,24,26,28,30,32,34,36,38,40,42,44,46,48,50,52,54,56,58,60,62,-1,-1,64,66,68,70,72,74,76,78,-1,-1,80,82,84,86,88,90,92,94,96,98,100,102,104,106,108,110,112,-1,114,116,-1,-1,-1,-1,-1,-1,-1,-1,-1,-1,-1,-1,-1,-1,-1,-1,-1,-1,-1,-1,-1,-1,-1,-1,-1,-1,-1,-1,-1,-1,-1,-1,-1,-1,-1,-1,-1,-1,-1,-1,-1,-1,-1,-1,-1,-1,-1,-1,-1,-1,-1,-1,-1,-1],"split_conditions":[-2.80375E-1,1.266125E0,1.6661667E0,1.07825E0,1.4384167E0,6.8525004E-1,4.92375E0,-5.32E2,4.505E0,5.982456E-1,2.1731827E-1,-2.625E2,1.4054999E0,2.93875E0,1.0537916E0,3.65206E-1,1.0387499E0,1.794175E-1,1.4809018E-1,-7.25E2,2.1980677E-2,8.775E2,7.95E1,1.5E0,1.05E1,2.015E2,4.505E2,-5.3658974E-1,5.2774116E-2,5.025E2,7.6187587E-1,-1.01270154E-1,8.246688E-2,1.1095E3,2.5127536E-1,5.4251814E-1,1.8435125E-1,1.2445E3,2.0384309E-1,1.3006756E-1,-1.455E2,-1.3489695E-1,4.051357E-2,6.0087603E-2,-1.55E1,2.5E0,5.43E2,5E0,3.9317223E-1,5.25E1,-1.4878505E-1,9.251478E-2,2.215E2,4.884867E-1,9.423084E-3,6.106609E-2,2.505E2,1.7627496E-1,6.543836E-2,4.5E0,2.2493148E-2,2.005E2,3.753695E-1,1.1010655E-1,4.9152177E-2,9.2028104E-2,-6.623628E-2,4.800331E-2,6.86601E-2,-1.06166676E-1,3.0472044E-2,7.316873E-2,5.0391383E-2,7.796176E-2,-6.59004E-2,-4.7780268E-2,1.283022E-1,1.542181E-2,3.5044372E-2,1.3234324E-2,3.3655968E-2,-1.3930061E-1,-2.3843034E-3,-1.3491436E-2,7.551841E-2,-1.1478386E-1,1.78067E-2,3.501031E-2,1.15080014E-1,-3.4648813E-2,5.3086407E-2,6.600658E-2,-1.768494E-3,-2.1389008E-2,-3.2601587E-3,-3.392433E-2,2.3678184E-2,9.073792E-2,-1.2077503E-2,-2.0285783E-2,-2.8113322E-3,-1.00848496E-1,7.3116445E-3,4.742257E-3,1.6216731E-1,-5.5984117E-2,-3.86531E-2,-6.845803E-2,1.808001E-2,-2.09425E-2,-5.484551E-2,-1.06142E-1,-8.394239E-2,-8.269669E-2,-3.0004E-2,6.090599E-2,-7.757385E-2],"split_indices":[9,7,9,7,7,9,9,44,8,18,30,3,8,9,8,18,7,28,45,44,20,10,3,13,1,44,1,47,34,44,37,0,0,44,46,17,28,6,33,18,44,0,0,46,3,1,44,10,16,13,47,25,44,36,25,35,5,28,21,40,0,44,21,0,0,0,0,0,0,0,0,0,0,0,0,0,0,0,0,0,0,0,0,0,0,0,0,0,0,0,0,0,0,0,0,0,0,0,0,0,0,0,0,0,0,0,0,0,0,0,0,0,0,0,0,0,0],"split_type":[0,0,0,0,0,0,0,0,0,0,0,0,0,0,0,0,0,0,0,0,0,0,0,0,0,0,0,0,0,0,0,0,0,0,0,0,0,0,0,0,0,0,0,0,0,0,0,0,0,0,0,0,0,0,0,0,0,0,0,0,0,0,0,0,0,0,0,0,0,0,0,0,0,0,0,0,0,0,0,0,0,0,0,0,0,0,0,0,0,0,0,0,0,0,0,0,0,0,0,0,0,0,0,0,0,0,0,0,0,0,0,0,0,0,0,0,0],"sum_hessian":[2.4308287E4,1.0103018E4,1.420527E4,3.0057961E3,7.0972217E3,9.897954E3,4.307316E3,5.5132263E2,2.4544734E3,2.6823918E3,4.4148296E3,6.179065E3,3.7188887E3,3.3894465E3,9.178695E2,3.1871557E0,5.481355E2,1.3583491E3,1.0961244E3,2.677551E3,4.840827E0,4.323531E3,9.129859E1,8.003447E1,6.099031E3,1.2997327E3,2.419156E3,2.0499504E3,1.339496E3,3.807113E2,5.371582E2,1.5294158E0,1.6577399E0,2.2390987E2,3.2422565E2,1.3224801E3,3.5868927E1,6.638409E2,4.3228345E2,1.2284894E1,2.6652664E3,3.6681004E0,1.1727269E0,4.3081064E3,1.5424276E1,8.566774E1,5.6308537E0,3.795089E1,4.208358E1,3.1781577E2,5.781215E3,1.2108903E3,8.884239E1,2.395029E3,2.4126884E1,5.0394993E0,2.044911E3,6.078313E2,7.3166473E2,3.787622E2,1.9491141E0,5.272502E2,9.908051E0,2.1793309E2,5.976774E0,3.2302377E2,1.2018504E0,1.1159366E3,2.0654346E2,6.292517E0,2.957641E1,2.7761E2,3.8623093E2,4.2968143E2,2.602022E0,1.1721184E0,1.1112776E1,2.52206E2,2.4130603E3,4.0833843E3,2.2472244E2,7.80997E0,7.614307E0,2.0657051E1,6.501069E1,3.681289E0,1.9495648E0,6.2162523E0,3.1734638E1,1.3093892E1,2.8989687E1,1.2360289E2,1.9421288E2,8.182103E2,4.9630044E3,1.1817594E3,2.913085E1,1.139827E1,7.744412E1,2.0558208E3,3.3920837E2,1.906447E1,5.062414E0,3.1345415E0,1.9049578E0,3.9853525E2,1.6463757E3,5.9925616E2,8.575081E0,6.374392E1,6.6792084E2,3.081508E2,7.061142E1,5.0741614E2,1.9834038E1,5.1463723E0,4.7616777E0],"tree_param":{"num_deleted":"0","num_feature":"48","num_nodes":"117","size_leaf_vector":"0"}},{"base_weights":[-4.6004273E-4,2.8951174E-1,-2.4508598E-1,5.5792046E-1,1.5597588E-1,-1.1065079E-1,-5.2828664E-1,8.293845E-1,4.6406782E-1,2.5175452E-1,9.7123004E-2,-5.3148203E-2,-2.2037943E-1,-4.456879E-1,-8.4204435E-1,9.39438E-1,6.940211E-1,5.5115235E-1,4.1231814E-1,2.5832534E-1,-1.9679675E-1,1.3102789E-1,3.7036695E-2,5.6892395E-1,-6.2851846E-2,-3.23298E-1,-1.872145E-1,-3.811952E-1,-5.4518986E-1,-1.0348684E0,-7.757231E-1,-8.601108E-2,9.457756E-1,7.0442134E-1,-3.2663402E-1,5.904517E-1,4.1805837E-1,3.5476634E-1,4.860468E-1,1.1790232E-1,2.7556044E-1,-4.216088E-2,-1.0372373E0,1.2840813E-1,1.1909399E0,5.2167576E-2,-3.0077764E-1,4.5240584E-1,1.4327362E0,2.5549078E-1,-8.003478E-2,-2.494434E-1,-4.5913172E-1,-1.3867941E-1,-2.7404395E-1,-5.9375983E-1,-3.6154345E-1,-5.292146E-1,-9.0679145E-1,5.171486E-1,-1.0479143E0,-1.0366624E-1,-7.875534E-1,-9.673651E-1,7.9545456E-1,9.5536923E-1,2.3436342E-1,7.730654E-1,5.454644E-1,-1.3020959E0,4.0433934E-1,5.066475E-1,6.992629E-1,-6.177059E-1,4.4429126E-1,4.2716512E-1,1.5676308E-1,4.4749084E-1,7.2630405E-1,-7.712409E-1,1.5521385E-1,2.675287E-1,6.2994075E-1,5.495745E-1,-2.4401166E-1,5.870991E-1,-1.6337605E0,1.3868317E-1,-1.23531766E-1,1.4033823E0,2.2566551E-1,3.4339033E-2,3.090002E-1,7.928718E-2,-5.716242E-1,7.1954846E-1,1.9552557E-1,5.898058E-1,2.1223575E-2,-7.082654E-2,-4.9910107E-1,-2.699051E-1,4.067777E-1,-8.3286005E-1,-3.89831E-1,-1.5046525E-1,5.212161E-1,-1.1898302E0,-2.6126614E-1,-6.435672E-1,5.815728E-1,-3.817944E-1,-1.8435127E-1,-6.18519E-1,-4.702235E-1,-1.4641865E-1,-1.0123932E0,-1.2123578E-1,-1.0552241E0,-4.6074054E-1,1.3521473E0,-8.004121E-1,-2.5227514E-1],"categories":[],"categories_nodes":[],"categories_segments":[],"categories_sizes":[],"default_left":[1,1,1,1,1,1,1,1,1,1,1,1,1,1,1,1,1,1,1,1,1,1,1,1,1,1,1,1,1,1,1,1,1,1,1,1,1,1,1,1,1,1,1,1,1,1,1,1,0,1,1,1,1,1,1,1,1,1,1,0,1,1,1,0,0,0,0,0,0,0,0,0,0,0,0,0,0,0,0,0,0,0,0,0,0,0,0,0,0,0,0,0,0,0,0,0,0,0,0,0,0,0,0,0,0,0,0,0,0,0,0,0,0,0,0,0,0,0,0,0,0,0,0],"id":11,"left_children":[1,3,5,7,9,11,13,15,17,19,21,23,25,27,29,31,33,35,37,39,41,43,45,47,49,51,53,55,57,59,61,63,65,67,69,71,73,75,77,79,81,83,85,87,89,91,93,95,-1,97,99,101,103,105,107,109,111,113,115,-1,117,119,121,-1,-1,-1,-1,-1,-1,-1,-1,-1,-1,-1,-1,-1,-1,-1,-1,-1,-1,-1,-1,-1,-1,-1,-1,-1,-1,-1,-1,-1,-1,-1,-1,-1,-1,-1,-1,-1,-1,-1,-1,-1,-1,-1,-1,-1,-1,-1,-1,-1,-1,-1,-1,-1,-1,-1,-1,-1,-1,-1,-1],"loss_changes":[1.7060488E3,3.9437305E2,4.9661285E2,9.275879E1,4.1409622E1,5.581317E1,1.084469E2,1.3320984E1,1.202594E1,8.294601E0,9.273796E0,3.508651E1,1.0322357E1,2.113617E1,1.0373352E1,3.4251404E0,4.735565E0,5.0386047E0,7.0811157E0,6.640152E0,5.2781506E0,7.930725E0,8.420595E0,8.338316E0,3.1299952E1,7.308777E0,9.667198E0,8.229248E0,7.0627747E0,5.009857E0,5.1202087E0,3.9368596E0,3.2666626E0,4.166321E0,4.0663867E0,6.73761E0,6.626545E0,1.3748512E1,6.5918884E0,1.017671E1,6.818817E0,4.389618E0,7.0841475E0,7.537739E0,1.130455E0,7.199839E0,7.317057E0,5.3584213E0,0E0,2.2941593E1,2.090372E1,6.575508E0,6.3946E0,1.1583099E1,9.339497E0,1.0297287E1,6.578369E0,6.309387E0,4.175152E0,0E0,1.3565979E0,7.1050706E0,4.2224426E0,0E0,0E0,0E0,0E0,0E0,0E0,0E0,0E0,0E0,0E0,0E0,0E0,0E0,0E0,0E0,0E0,0E0,0E0,0E0,0E0,0E0,0E0,0E0,0E0,0E0,0E0,0E0,0E0,0E0,0E0,0E0,0E0,0E0,0E0,0E0,0E0,0E0,0E0,0E0,0E0,0E0,0E0,0E0,0E0,0E0,0E0,0E0,0E0,0E0,0E0,0E0,0E0,0E0,0E0,0E0,0E0,0E0,0E0,0E0,0E0],"parents":[2147483647,0,0,1,1,2,2,3,3,4,4,5,5,6,6,7,7,8,8,9,9,10,10,11,11,12,12,13,13,14,14,15,15,16,16,17,17,18,18,19,19,20,20,21,21,22,22,23,23,24,24,25,25,26,26,27,27,28,28,29,29,30,30,31,31,32,32,33,33,34,34,35,35,36,36,37,37,38,38,39,39,40,40,41,41,42,42,43,43,44,44,45,45,46,46,47,47,49,49,50,50,51,51,52,52,53,53,54,54,55,55,56,56,57,57,58,58,60,60,61,61,62,62],"right_children":[2,4,6,8,10,12,14,16,18,20,22,24,26,28,30,32,34,36,38,40,42,44,46,48,50,52,54,56,58,60,62,64,66,68,70,72,74,76,78,80,82,84,86,88,90,92,94,96,-1,98,100,102,104,106,108,110,112,114,116,-1,118,120,122,-1,-1,-1,-1,-1,-1,-1,-1,-1,-1,-1,-1,-1,-1,-1,-1,-1,-1,-1,-1,-1,-1,-1,-1,-1,-1,-1,-1,-1,-1,-1,-1,-1,-1,-1,-1,-1,-1,-1,-1,-1,-1,-1,-1,-1,-1,-1,-1,-1,-1,-1,-1,-1,-1,-1,-1,-1,-1,-1,-1],"split_conditions":[-3.8625002E-2,1.3196666E0,1.6661667E0,1.1194999E0,-1.0441666E0,2.37125E0,4.92375E0,1.070375E0,-3.168E0,3.8487527E-1,9.535E2,-2.335E2,-1.2597823E-1,2.93875E0,1.0387499E0,-5.32E2,1.5776509E-1,4.5E0,-4.45E1,-1.455E2,8.282775E-2,7.605E2,3.490218E-1,5.3637564E-1,1.05E1,1.3636645E-2,5.25E1,3.5E0,4.046862E-1,7.5E0,4.25E1,3.65206E-1,5.584086E-1,2.2188035E-1,4.2E1,1.0948634E-1,1.9090909E-1,1.855E2,4.9176943E-1,3.6609493E-2,3.1917134E-1,-2.075E2,2.1329192E-2,1.995935E-1,-3.18E2,6.2107034E-2,7.9548016E-2,1.5E0,1.4327362E-1,5.25E1,2.335E2,2.695E2,-7.690344E-2,4.2280608E-1,-2.9805663E-1,3.175E2,1.985E2,1.317E3,3.136125E0,5.1714864E-2,-1.56925E4,1.1834734E-1,2.445E2,-9.673651E-2,7.954546E-2,9.5536925E-2,2.3436343E-2,7.730654E-2,5.4546442E-2,-1.302096E-1,4.0433936E-2,5.0664753E-2,6.992629E-2,-6.177059E-2,4.4429127E-2,4.2716514E-2,1.5676308E-2,4.4749085E-2,7.2630405E-2,-7.712409E-2,1.5521385E-2,2.6752872E-2,6.299408E-2,5.495745E-2,-2.4401166E-2,5.870991E-2,-1.6337605E-1,1.3868317E-2,-1.2353177E-2,1.4033823E-1,2.2566551E-2,3.4339034E-3,3.090002E-2,7.928718E-3,-5.7162423E-2,7.195485E-2,1.9552557E-2,5.898058E-2,2.1223575E-3,-7.0826537E-3,-4.991011E-2,-2.6990509E-2,4.067777E-2,-8.328601E-2,-3.8983103E-2,-1.5046525E-2,5.212161E-2,-1.1898302E-1,-2.6126614E-2,-6.435672E-2,5.8157276E-2,-3.817944E-2,-1.8435126E-2,-6.18519E-2,-4.702235E-2,-1.4641865E-2,-1.0123932E-1,-1.2123578E-2,-1.0552241E-1,-4.6074055E-2,1.3521473E-1,-8.0041215E-2,-2.5227515E-2],"split_indices":[9,7,9,7,9,7,9,7,9,26,4,3,47,9,8,44,22,40,3,44,23,6,27,36,1,28,2,38,20,1,13,18,18,20,11,45,17,11,37,21,26,44,45,35,3,46,30,13,0,13,3,10,46,26,43,44,15,5,9,0,6,33,44,0,0,0,0,0,0,0,0,0,0,0,0,0,0,0,0,0,0,0,0,0,0,0,0,0,0,0,0,0,0,0,0,0,0,0,0,0,0,0,0,0,0,0,0,0,0,0,0,0,0,0,0,0,0,0,0,0,0,0,0],"split_type":[0,0,0,0,0,0,0,0,0,0,0,0,0,0,0,0,0,0,0,0,0,0,0,0,0,0,0,0,0,0,0,0,0,0,0,0,0,0,0,0,0,0,0,0,0,0,0,0,0,0,0,0,0,0,0,0,0,0,0,0,0,0,0,0,0,0,0,0,0,0,0,0,0,0,0,0,0,0,0,0,0,0,0,0,0,0,0,0,0,0,0,0,0,0,0,0,0,0,0,0,0,0,0,0,0,0,0,0,0,0,0,0,0,0,0,0,0,0,0,0,0,0,0],"sum_hessian":[2.4049004E4,1.1004472E4,1.3044533E4,3.6549E3,7.3495723E3,8.846497E3,4.198036E3,9.3695825E2,2.7179417E3,2.7960056E3,4.5535664E3,5.8055957E3,3.0409011E3,3.325102E3,8.7293396E2,5.135171E2,4.2344113E2,1.0095001E3,1.7084415E3,2.7560562E3,3.994944E1,2.910231E3,1.6433357E3,8.828486E1,5.7173105E3,7.389667E2,2.3019346E3,2.0204001E3,1.304702E3,2.1966641E2,6.532676E2,3.0770152E0,5.104401E2,4.194766E2,3.9645386E0,7.7671826E2,2.327818E2,9.627447E2,7.456968E2,3.0214737E2,2.4539087E3,3.4628227E1,5.321214E0,2.9041738E3,6.0570226E0,1.5736947E3,6.964102E1,7.913431E1,9.150551E0,2.9208463E2,5.425226E3,4.8053156E2,2.584351E2,1.4782397E3,8.236947E2,1.6850761E2,1.8518926E3,1.2518594E3,5.2842598E1,1.5089791E0,2.1815744E2,1.1469531E1,6.4179803E2,1.4898766E0,1.5871385E0,5.0330988E2,7.130224E0,2.9026505E2,1.2921156E2,1.3635734E0,2.6009653E0,4.419747E2,3.347436E2,5.1931086E0,2.275887E2,7.0412714E2,2.5861755E2,6.45044E2,1.0065275E2,1.1376326E1,2.9077103E2,2.4012417E3,5.2667095E1,8.369615E0,2.6258612E1,1.4335223E0,3.8876917E0,2.790804E3,1.1336975E2,4.5924287E0,1.4645936E0,1.4726046E3,1.0109005E2,2.9272173E1,4.036885E1,3.7909363E1,4.122494E1,1.19719376E2,1.7236523E2,5.309723E3,1.1550284E2,4.6657202E2,1.3959532E1,3.8702156E1,2.1973294E2,1.4530599E3,2.5179897E1,1.0067115E1,8.136276E2,1.6209108E2,6.416535E0,1.6609154E3,1.909772E2,4.9420944E2,7.5764996E2,6.734947E0,4.610765E1,1.8450108E0,2.1631242E2,9.75933E0,1.7102004E0,6.262585E2,1.5539581E1],"tree_param":{"num_deleted":"0","num_feature":"48","num_nodes":"123","size_leaf_vector":"0"}},{"base_weights":[-4.0834802E-4,2.0348531E-1,-2.903345E-1,4.8754138E-1,8.6533606E-2,-5.6724375E-1,-1.7802443E-1,7.8627616E-1,4.0363553E-1,1.7275946E-1,1.9539911E-2,-4.7084036E-1,-7.991524E-1,-2.820991E-1,-1.1860216E-1,9.1312987E-1,6.6203684E-1,4.976402E-1,3.472565E-1,2.3967697E-1,1.4125307E-1,5.1907063E-2,-1.4500958E-1,-4.3596825E-1,-5.896709E-1,-9.159818E-1,-6.815671E-1,-1.3245932E0,-2.793029E-1,-1.09647125E-1,-3.0127406E-1,9.228346E-1,-8.488898E-2,7.473008E-3,6.779643E-1,5.42342E-1,3.7700573E-1,3.505658E-1,-5.944743E-1,2.856252E-1,5.2877337E-2,9.675949E-2,2.053286E-1,2.681445E-2,2.4762253E-1,-3.8432923E-1,2.4289072E-2,-6.431788E-1,-4.1290653E-1,-5.6140244E-1,-1.0375731E0,-9.231267E-1,8.493812E-2,-6.912693E-1,5.5774635E-1,4.2225888E-1,-2.830955E-1,-1.1381152E-1,2.9822668E-1,-3.322573E-1,1.1091794E0,1.0195229E0,8.3966297E-1,7.954328E-1,-7.750245E-1,5.62808E-1,-1.1777627E0,7.498231E-1,5.1828086E-1,5.481568E-1,-6.492282E-1,2.5497824E-1,5.246774E-1,4.6252188E-1,3.1838793E-1,-1.149146E0,6.3003063E-1,1.6957963E-1,3.429535E-1,-1.105764E0,8.917395E-2,1.14603E-1,-2.1461801E-1,2.3272952E-1,-3.8307335E-2,-1.0207809E-2,1.2746616E-1,1.15136094E-1,4.599532E-1,-5.178689E-1,-7.9802655E-2,3.9599024E-2,-1.2914555E0,-1.9625294E-1,-7.2684675E-1,5.1522523E-2,-4.232407E-1,-4.5819178E-1,-6.9743687E-1,-1.1052059E0,2.2901173E-1,-1.0081124E0,-8.347937E-1,-7.875594E-1,1.0268694E0,-7.086858E-1,-7.809407E-2,1.4122027E0,-7.0246917E-1,6.926114E-1,-7.5829643E-1,-2.7866977E-1,-9.2300653E-1,-1.4784138E-1,-6.532659E-2,5.090783E-1,-5.0337297E-1,-1.5538925E-1,-5.5407333E-1,3.5613796E-1,1.4235009E0],"categories":[],"categories_nodes":[],"categories_segments":[],"categories_sizes":[],"default_left":[1,1,1,1,1,1,1,1,1,1,1,1,1,1,1,1,1,1,1,1,1,1,1,1,1,1,1,0,1,1,1,1,1,1,1,1,1,1,1,1,1,1,1,1,1,1,1,1,1,1,1,1,1,1,1,1,1,1,1,1,1,0,0,0,0,0,0,0,0,0,0,0,0,0,0,0,0,0,0,0,0,0,0,0,0,0,0,0,0,0,0,0,0,0,0,0,0,0,0,0,0,0,0,0,0,0,0,0,0,0,0,0,0,0,0,0,0,0,0,0,0],"id":12,"left_children":[1,3,5,7,9,11,13,15,17,19,21,23,25,27,29,31,33,35,37,39,41,43,45,47,49,51,53,-1,55,57,59,61,63,65,67,69,71,73,75,77,79,81,83,85,87,89,91,93,95,97,99,101,103,105,107,109,111,113,115,117,119,-1,-1,-1,-1,-1,-1,-1,-1,-1,-1,-1,-1,-1,-1,-1,-1,-1,-1,-1,-1,-1,-1,-1,-1,-1,-1,-1,-1,-1,-1,-1,-1,-1,-1,-1,-1,-1,-1,-1,-1,-1,-1,-1,-1,-1,-1,-1,-1,-1,-1,-1,-1,-1,-1,-1,-1,-1,-1,-1,-1],"loss_changes":[1.4072328E3,4.6426398E2,3.055785E2,1.0184772E2,5.7193184E1,6.3021423E1,4.3221725E1,1.3464844E1,1.6703064E1,9.093475E0,2.969072E1,8.053497E0,1.0794617E1,7.038025E0,7.2529106E0,4.3309937E0,4.7348175E0,6.2205505E0,6.4218597E0,1.1867126E1,8.378468E0,2.2868484E1,3.7136215E1,7.161957E0,5.1426697E0,3.0394592E0,5.413803E0,0E0,6.8666534E0,7.2483673E0,9.439384E0,2.6415405E0,3.741784E0,8.436976E0,4.704193E0,6.363388E0,5.7301292E0,7.012329E0,5.71784E0,7.331993E0,1.1643694E1,9.69466E0,8.062347E0,1.5390092E1,1.4834061E1,1.5400398E1,1.0881004E1,5.6111565E0,6.748047E0,5.682724E0,2.4516125E0,2.2453003E0,3.9730875E0,4.380661E0,5.085847E0,5.005023E0,6.887436E0,6.92865E0,7.5585356E0,7.9124317E0,6.0365295E-1,0E0,0E0,0E0,0E0,0E0,0E0,0E0,0E0,0E0,0E0,0E0,0E0,0E0,0E0,0E0,0E0,0E0,0E0,0E0,0E0,0E0,0E0,0E0,0E0,0E0,0E0,0E0,0E0,0E0,0E0,0E0,0E0,0E0,0E0,0E0,0E0,0E0,0E0,0E0,0E0,0E0,0E0,0E0,0E0,0E0,0E0,0E0,0E0,0E0,0E0,0E0,0E0,0E0,0E0,0E0,0E0,0E0,0E0,0E0,0E0],"parents":[2147483647,0,0,1,1,2,2,3,3,4,4,5,5,6,6,7,7,8,8,9,9,10,10,11,11,12,12,13,13,14,14,15,15,16,16,17,17,18,18,19,19,20,20,21,21,22,22,23,23,24,24,25,25,26,26,28,28,29,29,30,30,31,31,32,32,33,33,34,34,35,35,36,36,37,37,38,38,39,39,40,40,41,41,42,42,43,43,44,44,45,45,46,46,47,47,48,48,49,49,50,50,51,51,52,52,53,53,54,54,55,55,56,56,57,57,58,58,59,59,60,60],"right_children":[2,4,6,8,10,12,14,16,18,20,22,24,26,28,30,32,34,36,38,40,42,44,46,48,50,52,54,-1,56,58,60,62,64,66,68,70,72,74,76,78,80,82,84,86,88,90,92,94,96,98,100,102,104,106,108,110,112,114,116,118,120,-1,-1,-1,-1,-1,-1,-1,-1,-1,-1,-1,-1,-1,-1,-1,-1,-1,-1,-1,-1,-1,-1,-1,-1,-1,-1,-1,-1,-1,-1,-1,-1,-1,-1,-1,-1,-1,-1,-1,-1,-1,-1,-1,-1,-1,-1,-1,-1,-1,-1,-1,-1,-1,-1,-1,-1,-1,-1,-1,-1],"split_conditions":[2.8358334E-1,-1.6701667E0,1.2734166E0,1.1194999E0,-6.110833E-1,4.92375E0,1.4054999E0,-6.9375E0,1.2165834E0,1.4384167E0,4.15E1,4E0,1.0615E0,2.5083332E0,3.960594E-1,3.505E3,2.35E1,3.5E0,5.9475E3,1.4405036E-1,5.35E1,1.7493358E-1,1.625E0,3.7703544E-2,8.306112E-2,5.32E2,1.5776509E-1,-1.3245933E-1,4.5E0,3.8266236E-1,2.925E2,1.035E0,2.925202E-2,5.0893553E-2,2.2188035E-1,4.6428573E-1,7.552655E-2,4.65E1,1.545E2,2.761003E-2,2.1455939E-1,7.5E0,4.639977E-1,7.539949E-2,8.987664E-2,6.55E1,3.04E2,3.8303694E-1,-3.7066907E-1,1.23144425E-1,4.6428573E-1,1.0387499E0,1.65E1,2.425E2,9.592838E-2,4.41039E-2,5.205E2,9.535E2,6.7701444E-2,1.36060715E-2,-1.855E2,1.0195229E-1,8.39663E-2,7.9543285E-2,-7.750245E-2,5.62808E-2,-1.17776275E-1,7.498231E-2,5.1828086E-2,5.481568E-2,-6.4922825E-2,2.5497824E-2,5.246774E-2,4.6252187E-2,3.1838793E-2,-1.14914596E-1,6.300306E-2,1.6957963E-2,3.429535E-2,-1.10576406E-1,8.917395E-3,1.14603E-2,-2.1461802E-2,2.3272952E-2,-3.8307335E-3,-1.0207809E-3,1.2746616E-2,1.1513609E-2,4.599532E-2,-5.178689E-2,-7.980266E-3,3.9599026E-3,-1.2914555E-1,-1.9625295E-2,-7.2684675E-2,5.1522525E-3,-4.232407E-2,-4.581918E-2,-6.9743685E-2,-1.10520594E-1,2.2901174E-2,-1.0081124E-1,-8.347937E-2,-7.875594E-2,1.0268694E-1,-7.086858E-2,-7.8094075E-3,1.4122027E-1,-7.024692E-2,6.926114E-2,-7.582965E-2,-2.7866978E-2,-9.230065E-2,-1.4784138E-2,-6.532659E-3,5.090783E-2,-5.0337296E-2,-1.5538925E-2,-5.5407334E-2,3.5613798E-2,1.4235009E-1],"split_indices":[9,9,8,7,9,9,8,9,7,7,3,0,8,7,20,5,11,40,5,34,1,45,8,35,46,44,23,0,1,20,15,7,26,19,20,23,31,2,15,22,17,3,37,43,30,2,12,17,45,31,22,8,2,44,35,27,11,5,23,34,6,0,0,0,0,0,0,0,0,0,0,0,0,0,0,0,0,0,0,0,0,0,0,0,0,0,0,0,0,0,0,0,0,0,0,0,0,0,0,0,0,0,0,0,0,0,0,0,0,0,0,0,0,0,0,0,0,0,0,0,0],"split_type":[0,0,0,0,0,0,0,0,0,0,0,0,0,0,0,0,0,0,0,0,0,0,0,0,0,0,0,0,0,0,0,0,0,0,0,0,0,0,0,0,0,0,0,0,0,0,0,0,0,0,0,0,0,0,0,0,0,0,0,0,0,0,0,0,0,0,0,0,0,0,0,0,0,0,0,0,0,0,0,0,0,0,0,0,0,0,0,0,0,0,0,0,0,0,0,0,0,0,0,0,0,0,0,0,0,0,0,0,0,0,0,0,0,0,0,0,0,0,0,0,0],"sum_hessian":[2.3803367E4,1.3975351E4,9.828016E3,4.07491E3,9.90044E3,2.8347266E3,6.9932896E3,8.9171484E2,3.183195E3,4.328177E3,5.5722637E3,2.0044966E3,8.3023004E2,2.540319E3,4.45297E3,4.3807343E2,4.5364145E2,1.1904495E3,1.9927456E3,1.3833743E3,2.9448027E3,4.656924E3,9.1533997E2,1.553325E3,4.5117157E2,4.1304752E2,4.1718256E2,5.5309334E0,2.5347883E3,4.2464014E3,2.0656895E2,4.3392923E2,4.1441846E0,1.0811135E1,4.4283032E2,8.660382E2,3.2441122E2,1.986393E3,6.352556E0,1.1098491E3,2.7352518E2,1.7394509E3,1.2053519E3,4.128719E3,5.2820465E2,3.7871722E2,5.3662274E2,1.5287215E2,1.4004529E3,4.2650684E2,2.4664736E1,4.101971E2,2.8503788E0,4.143807E2,2.8018396E0,1.3036008E1,2.5217522E3,4.2041973E3,4.2204002E1,2.0287682E2,3.692135E0,1.9545349E2,2.3847574E2,1.7541078E0,2.3900766E0,7.7194057E0,3.0917294E0,3.0284988E2,1.3998042E2,8.623699E2,3.6683621E0,1.791218E2,1.4528943E2,4.4047592E2,1.5459171E3,4.4144554E0,1.938101E0,3.6829474E2,7.415543E2,7.413414E0,2.6611176E2,1.6457717E3,9.367914E1,1.083535E3,1.2181682E2,3.0191116E3,1.1096075E3,3.262063E2,2.0199835E2,2.6278244E2,1.1593477E2,5.314092E2,5.2135525E0,2.4633572E1,1.2823857E2,3.0396864E1,1.370056E3,2.4499498E2,1.8151187E2,2.353541E1,1.1293257E0,2.0375272E2,